327 128
317 0.2517256 -0.1732054 -0.11738604 0.08749649 0.101414286 -0.15032482 0.26377314 -0.0058248164 -0.0813898 0.25372258 0.07741659 -0.13597639 -0.11439745 -0.17048548 0.14304176 0.18477733 -0.13351545 -0.08967131 0.014804269 0.07461724 0.31509793 0.23491398 -0.10061579 -0.25228906 -0.2028971 0.15634184 -0.05895928 0.07110103 0.11057565 -0.09273749 -0.14552584 -0.091715865 0.12015961 0.05639575 0.010608592 0.035617165 0.30004525 -0.1340001 0.08380705 0.05748219 -0.14149909 0.12273809 -0.1153917 -0.12466447 0.11461889 -0.06560194 -0.05786023 -0.16025667 -0.12234548 0.033857353 0.099124804 -9.4362804e-05 0.07103916 -0.022329997 -0.07836392 -0.15207985 0.12307983 -0.122488834 -0.15054333 -0.017447175 -0.0022448488 0.19930342 -0.06968197 -0.0064364774 0.059562407 0.078778364 -0.08002122 0.0076682847 0.016278453 -0.08225667 0.016721554 0.017316507 0.0009982504 -0.10364022 0.16924249 0.08157954 -0.025432454 -0.100242205 -0.06901395 -0.022270143 -0.0615767 -0.05764769 0.01761846 0.32111418 0.09627159 0.029931849 0.31232908 -0.056914996 0.039909974 -0.123897776 -0.08604863 -0.24749297 0.010030473 -0.12899409 0.14256021 0.05784368 0.053024027 -0.19314319 -0.04972879 -0.012268308 -0.08158533 -0.087854244 -0.022279155 -0.011346223 0.223071 0.10689381 -0.09705068 0.33193988 0.2766412 -0.037450835 -0.13141838 -0.018164711 0.007080606 -0.07447883 0.07244536 -0.010469896 0.044683184 0.08110012 -0.074542 0.17569163 -0.18123043 -0.096723534 -0.08484576 0.043193184 -0.17629255 -0.17481211 0.14033952 0.12322658
38 -0.048624314 0.007943686 -0.031391833 0.1355876 -0.12790528 -0.051215842 0.15799293 -0.13273275 -0.040324733 0.37200046 0.024949301 -0.05973037 -0.035001267 -0.13129386 0.09377067 0.1310656 -0.12709324 -0.08499424 -0.14091814 0.002783571 0.031138273 0.08406663 -0.03209008 -0.21061918 -0.11970919 0.15758184 -0.19611321 0.06795828 0.020186916 -0.0069903084 -0.05733548 -0.03408062 -0.027350774 -0.01622272 -0.02993849 -0.023737252 0.15532525 -0.111588724 -0.035285246 0.12758824 -0.20065412 0.17046379 -0.14019595 -0.11994617 0.17475031 0.11932842 -0.09604608 0.07333295 -0.2163839 0.010648386 0.09641938 0.104366116 -0.051531523 -0.03964519 -0.083502255 -0.049284317 0.058047093 -0.23837358 -0.21334337 -0.10994096 -0.105723634 0.05798534 0.27264893 -0.060099393 0.2560673 -0.10537179 0.034822226 0.020896913 -0.12107378 -0.098024085 0.016606234 -0.15928227 -0.31119812 0.046531897 0.056120716 -0.05333209 -0.13785687 -0.10360518 -0.18398608 -0.09188884 -0.080943115 -0.050519533 0.082433894 0.1859253 0.011192571 0.079887606 0.1446588 -0.24235076 0.1673399 -0.060138807 -0.06101005 0.048850227 0.22110873 0.0015828983 0.004714442 -0.03838663 -0.05883967 -0.29276362 -0.0032439192 -0.15634759 -0.044499137 -0.061743375 0.025456581 0.011707883 -0.08059498 0.17585082 0.045495044 0.02568877 0.09452664 -0.2006152 0.13496773 -0.15849538 -0.07934163 0.031003445 -0.09117502 0.10947968 -0.04669841 -0.016944468 -0.0992811 -0.008280411 -0.17081556 -0.048816398 -0.12216191 0.19530533 -0.15924409 -0.21266715 0.044122424 -0.089451395
304 0.0813957 -0.13139388 -0.14064303 -0.014879949 0.08734238 -0.114795946 0.296412 -0.07023904 -0.05229896 0.25966683 0.043720994 -0.09593964 -0.09527314 -0.10763332 0.10943619 0.1305164 -0.01946202 -0.12472991 0.010044434 -0.018220056 0.20410459 0.1759585 -0.15192309 -0.21384239 -0.12115949 0.020057423 -0.09489071 0.101116866 0.068870015 -0.12450065 -0.09160267 -0.0472708 0.11658855 0.05274027 -0.010937773 0.037585318 0.18156102 -0.17662896 0.030395748 0.046144955 -0.12250742 0.07037419 -0.086142324 -0.18337536 0.08825854 -0.029921291 -0.03700815 -0.05068834 -0.15929921 -0.1019879 0.041034818 0.06877599 0.11410094 -0.17655027 -0.12883142 -0.16059968 0.094989836 -0.11476441 -0.081792325 -0.071306355 -0.022629581 0.22141823 0.08243645 0.050744724 0.1596883 0.079879574 -0.101614095 0.16265687 -0.012674408 0.015864681 0.058540877 -0.021467155 -0.031171797 -0.039982222 0.0911739 -0.15038311 -0.1427025 -0.111970976 -0.15998627 0.014709648 -0.09780365 -0.19211057 -0.023596847 0.23367362 0.13082156 0.07340597 0.21473433 -0.13093716 0.06802917 -0.1299413 -0.10026281 -0.21164452 0.063910745 -0.07142249 -0.024467174 0.049144126 0.017166927 -0.13846655 -0.102187976 -0.03507938 -0.044449847 -0.024925807 -0.023688039 -0.058375485 0.020065095 0.1368812 -0.05986125 0.24695238 0.16982353 -0.034831505 0.02009259 -0.04669713 -0.056849938 -0.06205216 0.14637066 -0.010032983 0.12360144 0.13751848 -0.03769957 0.074602656 -0.17782165 -0.09989403 -0.14820006 0.1088798 -0.17549661 -0.2531715 0.1343236 0.05035166
108 -0.03521197 0.020281255 -0.052417196 0.14014967 -0.17761047 -0.02723532 0.1395848 -0.16143899 -0.0816461 0.33343422 0.049156167 -0.030864941 -0.06582955 -0.1892491 0.11330186 0.08065089 -0.21658409 -0.1191076 -0.20435977 0.008022013 0.003055302 0.092754625 -0.06942403 -0.24642329 -0.10377264 0.22556202 -0.23876865 0.014363463 -0.0073233717 0.00051247736 -0.05065978 -0.025758278 -0.06697776 -0.020124214 -0.06487111 0.0618868 0.11506366 -0.078792006 -0.040656503 0.13197406 -0.20129274 0.14948793 -0.13268378 -0.06559137 0.14231819 0.083060496 -0.08906463 0.07902821 -0.16778818 0.015242357 0.13260974 0.08544434 -0.108617924 0.044079967 -0.08072936 -0.03138123 0.100818835 -0.28296182 -0.23006132 -0.08747575 -0.08208373 -0.0030671072 0.26924682 -0.06719924 0.24746458 -0.15073293 0.1201979 0.011125334 -0.14988993 -0.16510342 0.02626093 -0.18579067 -0.31365123 0.06120243 0.08216451 0.014598519 -0.17433286 -0.11047081 -0.15383555 -0.12916757 -0.058101192 -0.05273524 0.112562746 0.18440247 -0.062751524 0.117060296 0.13102421 -0.21154785 0.16230285 -0.049387675 -0.06930128 0.055802766 0.23640469 0.032722224 0.064066984 -0.011287312 -0.04424831 -0.29369703 -0.0018975418 -0.18042211 -0.0887432 -0.06620098 0.029444735 0.043967064 -0.06618295 0.16116704 0.08373454 0.0009695525 0.080268525 -0.2635672 0.13670893 -0.14339283 -0.07966989 0.0061920267 -0.084315546 0.13236481 -0.061816886 -0.04710236 -0.092412755 -0.029649204 -0.14063153 -0.036509626 -0.12898327 0.19484359 -0.18573622 -0.19702001 0.04414742 -0.10844792
309 0.0849055 -0.18337044 -0.13403732 -0.0768805 0.12517823 -0.16496475 0.32083648 -0.032293543 -0.0022874288 0.14201847 0.14917654 -0.024739815 -0.10073941 -0.05725378 0.12629606 0.08150065 -0.08627798 -0.21841638 0.02225657 0.005084638 0.20202222 0.21651182 -0.16217923 -0.21405108 -0.10847744 0.0902829 -0.037074674 0.018825924 0.10555299 -0.11948406 -0.16353062 -0.04098796 0.13257295 0.06669563 -0.03065129 0.04584194 0.23303448 -0.15496948 0.01587439 0.017677672 -0.090827644 0.116755 -0.07102847 -0.084808215 0.071629405 -0.112456776 -0.04564183 -0.062753946 -0.04985561 -0.009312676 0.082640916 0.023004279 0.109159395 -0.04928529 -0.096297316 -0.1995353 0.1201914 -0.13821228 -0.106768504 0.033830497 -0.09285883 0.28928968 0.05005515 -0.012385734 0.11634419 0.11861602 -0.11669941 0.118656054 0.02384139 0.0011130788 0.1341416 0.008169552 -0.026827578 -0.110825926 0.1356172 -0.094319016 -0.075734265 -0.090821765 -0.20828128 -0.0064149727 -0.15569107 -0.22780246 -0.024763312 0.2437384 0.12500337 -0.015811365 0.26946032 -0.0717001 0.0067005795 -0.06083883 -0.066019185 -0.2678883 -0.004223541 -0.102893166 0.12600327 0.14252706 0.088855505 -0.11344794 -0.113813035 0.0078679 -0.14139819 -0.066707455 -0.031959675 -0.0411035 0.11509742 0.13805765 -0.14303881 0.2681513 0.12237817 0.01274461 -0.028742747 -0.0006823365 -0.008523673 0.016300164 0.07552687 -0.039284594 0.0822049 0.10993759 -0.09917904 0.113739505 -0.19143547 -0.1296325 -0.119442396 0.032128867 -0.21059708 -0.37597615 0.1769303 0.0965725
201 0.13074882 -0.22041962 -0.056753743 0.0035032951 0.15340143 -0.20219369 0.23925278 -0.038741402 0.059118774 0.28593746 -0.008648984 -0.096681595 0.001509526 -0.0066421647 0.11945767 0.27382043 0.14350218 0.011749873 0.06954871 -0.052265994 0.17811584 0.20673043 -0.10621788 -0.24025351 -0.2816317 0.049771532 -0.054246612 0.21832883 -0.078619495 -0.14583534 -0.122584544 -0.019178366 0.086370595 0.019853875 0.0036575617 -0.007025175 0.2268308 -0.12082715 -0.012033041 0.094067395 -0.13909504 0.04310076 -0.087433696 -0.22725658 0.23505248 0.019826397 -0.021808784 -0.1259693 -0.2718245 -0.11819811 0.033551127 -0.005911492 0.11568851 -0.3281142 -0.17864902 -0.22207463 0.09917957 -0.026660727 -0.148026 0.0478064 0.02162592 0.32385635 0.17633337 0.08781045 0.10790557 0.07956433 -0.16628356 0.12317175 0.056702703 0.029714681 0.12580167 -0.09000767 -0.101145856 -0.109129556 0.14631695 -0.17620797 -0.03282761 -0.030045183 -0.18771778 0.075622864 -0.096459284 -0.14295416 -0.0064373743 0.22676523 0.11720445 0.16317269 0.034083977 -0.24354121 0.038577758 -0.16129103 -0.17550625 -0.0724847 0.005311147 -0.07517489 0.018379815 0.07202639 -0.045529127 -0.20872213 -0.14490567 -0.034556367 -0.04590555 0.013961756 -0.014447468 -0.0040821577 -0.0057508484 0.13711458 -0.0009922851 0.18409422 0.21355446 0.074740194 0.012091744 -0.07622652 -0.065954335 -0.027483776 0.011037488 -0.003803327 0.07028297 0.188886 0.004681929 0.18320176 -0.18952844 -0.16074528 -0.14555848 -0.037774265 -0.1681742 -0.3412507 0.07981425 0.14057055
135 0.1754951 -0.14057498 -0.0607642 -0.08020198 0.15273272 -0.25964966 0.2831198 0.051890485 0.039065875 0.04935923 0.06963896 -0.10891512 -0.12650171 0.0136699965 0.12856007 0.20935078 -0.09182735 -0.19774131 0.066829436 0.14062703 0.3326621 0.2169919 -0.13748626 -0.32700232 -0.20128337 0.14696214 -0.02726607 0.084487855 0.09407406 -0.1668091 -0.20739232 -0.084904306 0.02346829 0.087267786 -0.020729726 0.072415 0.18678138 -0.04254885 0.084848806 0.0074527957 -0.062170222 0.10085491 -0.03439986 -0.033392906 0.021533493 -0.12591557 -0.12354143 -0.17634496 -0.046917673 -0.023899522 0.05892321 -0.116397515 0.13374369 0.006489121 -0.12605064 -0.28896734 0.24258041 -0.06426707 -0.1767438 0.13652493 0.01093223 0.25917858 -0.049144883 -0.086053036 0.021031562 0.08962888 -0.19598955 0.12462886 -0.058675196 0.030186584 0.109689616 0.076079026 -0.029970815 -0.08305717 0.20244057 -0.021640005 0.042721782 -0.107071616 -0.24533845 0.027698465 -0.11076835 -0.12141528 -0.11813139 0.30673054 0.099677905 0.14018047 0.2944902 -0.172772 -0.025271246 -0.07160815 -0.05664847 -0.27214345 0.04277016 -0.14805345 0.2578533 0.16807894 0.058024146 -0.13524215 -0.14170745 0.0107770655 -0.15126005 -0.11257627 0.025934512 -0.057257153 0.19064583 0.048856318 -0.19940211 0.28126076 0.17921808 0.020426216 -0.08950687 -0.0044500707 0.01047773 -0.030519921 0.014858606 0.0016376876 0.050068982 0.15552771 -0.105881885 0.12396564 -0.18803714 -0.12630215 -0.022341643 -0.048233267 -0.21445893 -0.34911737 0.15205528 0.24644364
110 -0.017898321 0.10734575 0.03087198 0.08952159 -0.1443396 -0.055413853 0.14286041 -0.076145045 -0.056481674 0.23305298 -0.06061792 -0.04544744 -0.072198 -0.10479282 0.12927546 0.1562594 -0.1644194 -0.15097976 -0.23468044 0.074721694 0.044892307 0.08973817 -0.015276984 -0.18238468 -0.19215803 0.15670262 -0.23825279 -0.001831254 0.026790276 0.0058553214 -0.026412893 0.022935702 -0.034798734 -0.0735073 -0.10960469 0.09747421 0.061207272 -0.0031201781 -0.023010705 0.082856216 -0.22896564 0.1259779 -0.11611337 -0.08481863 0.106309734 0.089041635 -0.1723614 0.025734967 -0.08364808 0.03196576 0.14347383 0.11154471 -0.092940606 0.12216719 -0.14938073 -0.03757737 0.10788281 -0.17864174 -0.2436547 -0.09396239 -0.1384959 -0.044019505 0.2197888 -0.13838714 0.20416394 -0.12178237 0.14278898 -0.069119 -0.21306099 -0.14571044 -0.035991233 -0.11294459 -0.31360605 0.12884521 0.066701524 0.055468906 -0.18432197 -0.08805028 -0.14449903 -0.053320598 -0.011603589 -0.041649397 0.049587797 0.2478999 -0.09895594 0.20963047 0.1768671 -0.22242764 0.20294575 -0.06532459 -0.03617964 0.00012759771 0.34872633 0.0009786711 0.09845506 -0.019075738 -0.07289498 -0.29887465 -0.017068353 -0.17508103 -0.16541912 -0.06331232 0.0049849963 0.045775257 -0.028900169 0.16502169 0.07802257 -0.0492069 0.064071484 -0.27746874 0.16250983 -0.17878431 -0.1401981 0.005279759 -0.15237674 0.17927133 -0.06259174 -0.10042192 -0.09548582 -0.014808932 -0.1132425 -0.029120661 -0.033446725 0.14686382 -0.17297259 -0.16751418 0.031027818 -0.08991179
87 -0.03766275 0.046907194 0.06203855 -0.013451292 0.23939131 -0.107984066 0.22438043 -0.044571325 0.012491114 0.030679222 0.054051153 0.08899647 -0.068732485 -0.11567658 0.25359866 0.22741118 -0.027491221 -0.15820032 -0.13298099 0.13789563 0.15875414 0.27245846 -0.17212094 -0.056749266 -0.3309883 0.11712765 0.09176648 -0.102562584 -0.04913041 -0.043520793 0.13804561 0.060897343 0.07182536 -0.04436634 -0.19949196 0.2795539 0.042733014 -0.05592874 0.057386108 -0.100470774 -0.22947009 0.03411095 -0.053918757 -0.09645904 0.15069042 0.0072289356 -0.015457305 -0.056118645 0.046647586 0.059293482 0.086557396 0.26942548 -0.03461413 0.19234517 -0.16810304 -0.072267346 0.20404083 -0.08296459 -0.1423173 -0.055469353 -0.072695926 0.05597377 -0.014922089 0.09560177 0.05312905 -0.055006504 0.1371903 0.16442859 -0.0410277 0.009898191 0.042398114 0.011253833 0.06934343 0.12110509 -0.010624622 0.1514908 -0.19022538 0.07002508 -0.12005637 0.1483508 -0.06613399 -0.14538704 -0.09431505 0.23200248 -0.023976732 0.10872433 0.1396122 -0.018797336 0.100206226 0.023430936 -0.096715294 -0.31850335 -0.0060596555 -0.11550524 0.18323779 0.2196368 -0.055725623 0.0015478267 -0.16978642 -0.063022576 -0.27818215 -0.027951973 -0.16805337 0.00864086 0.06501477 0.010063878 0.04840631 0.08896541 0.022582963 0.030301495 0.124062605 -0.013240084 -0.06657708 -0.0025977897 -0.102803186 0.009599713 0.050129943 -0.15459287 0.07371385 0.1523451 -0.005361823 -0.07984899 0.18271948 -0.2383517 -0.26724407 -0.31362483 0.15057419 0.04315016
3 0.13637722 0.11865957 0.01553762 0.009901648 0.16110545 -0.113527305 0.13037346 -0.16907544 -0.025026565 0.07176214 0.091108076 -0.022699663 -0.057732023 -0.17891191 0.26969475 0.15354027 -0.004772548 -0.05826361 -0.118344255 0.08761833 0.29055935 0.318355 -0.14221138 -0.11951554 -0.35493445 0.1437791 0.054068178 -0.071464874 -0.076603666 0.037433133 0.07911897 -0.016087882 0.10255879 -0.031876218 -0.18132505 0.2962414 0.084516965 -0.15278882 0.1076511 -0.06388875 -0.14862783 0.030693244 0.08050393 -0.12199298 0.26339364 0.072409466 -0.19899692 -0.09767728 0.09672297 -0.054992918 0.0010411228 0.19676769 -0.027951986 0.01172114 -0.15311992 -0.087628156 0.14656101 0.111478195 -0.17728318 -0.1660339 -0.08055657 0.011133437 0.03113819 0.069930755 0.09673838 -0.07292686 0.1255397 0.051729303 -0.05610826 -0.0070004556 -0.028678508 -0.03139945 -0.07072758 0.13709992 -0.0005743952 0.11993517 -0.099642605 0.17796881 -0.040024955 0.14352317 -0.04470086 -0.11265634 -0.0998027 0.25066006 0.06629574 0.14007723 0.10726992 0.054728813 0.13909402 -0.06519117 0.0018521586 -0.339481 0.16053459 -0.108788766 0.08042401 0.02529645 -0.09559797 -0.0321462 -0.1716322 -0.23452286 -0.13103199 0.027933696 -0.08464434 -0.036007635 0.11327787 -0.012414113 -0.04216984 0.17803642 0.11111825 -0.112475574 0.15579577 -0.032540973 -0.04598084 -0.09584309 -0.13444191 0.02376023 0.00033379399 -0.116347 0.09236915 0.088570185 0.0063375067 -0.02080239 0.15222368 -0.24249095 -0.20022437 -0.24293964 0.14579879 0.037463106
15 -0.059406765 0.10234863 0.06492774 0.015026398 0.15837237 -0.17201635 0.18890172 -0.09392804 0.039087083 0.025740534 0.07946517 0.020527782 -0.02288097 -0.04852647 0.25911736 0.22318615 0.019854344 -0.16230422 -0.13134308 0.14985171 0.19745965 0.28545487 -0.15993814 -0.06960365 -0.31564352 0.08733577 0.08430833 -0.09368664 -0.06094965 -0.009573608 0.07419279 0.015623035 0.055826038 -0.09925565 -0.2016574 0.23880583 0.054526955 -0.051414374 0.09289607 -0.08208633 -0.18976124 0.02751819 0.009643709 -0.062951304 0.19017662 0.07279844 -0.17980035 -0.06682865 0.13082694 0.029314952 0.05361124 0.19371939 0.013104019 0.09200021 -0.1444459 -0.13550237 0.14835547 0.047470078 -0.20371377 -0.054306645 -0.12557955 0.027061144 0.015649794 0.0707779 0.063969225 -0.106956795 0.07443871 0.08754898 -0.09840282 0.066492 0.06407615 0.01777827 -0.10088675 0.117519066 0.035573214 0.097606316 -0.101121224 0.11822728 -0.13785648 0.1713762 -0.07966003 -0.10092151 -0.148527 0.2914102 0.026755147 0.13634188 0.13002758 -0.01144271 0.105691396 0.027749693 -0.02937432 -0.22949228 0.12700184 -0.12104982 0.20213427 0.17412822 -0.057342872 0.016013741 -0.17707247 -0.1644447 -0.18930905 -0.019179177 -0.058761247 -0.019414386 0.096664675 0.005046352 -0.022136295 0.09733779 0.057712004 -0.065565154 0.16904941 -0.071734086 -0.09644982 -0.042675443 -0.17149223 0.03807647 0.019023445 -0.10438517 0.014764013 0.119347565 0.05936402 -0.028803032 0.21038923 -0.2772486 -0.22880006 -0.3565609 0.1532321 0.088202626
94 0.18516693 -0.016334422 -0.00093146344 -0.07512193 0.12865756 -0.2378273 0.16785799 -0.13165036 0.060913097 0.22579141 0.048898753 -0.10222733 0.008843496 -0.108318225 0.15136518 0.14395544 0.19924964 0.019665757 0.062260166 -0.07158414 0.26515672 0.18674886 -0.108094856 -0.22505765 -0.28373286 -0.0023600457 -0.04725963 0.11583671 -0.10917058 -0.047110677 -0.061580863 0.0084553305 0.06558681 -0.0010938054 -0.054353394 0.15149175 0.15327023 -0.20713457 0.022220707 0.059261143 -0.08943451 0.066392966 0.044692796 -0.2275661 0.24099459 0.0036990102 -0.21964498 -0.11605495 -0.043197438 -0.137516 -0.026398163 0.053993873 0.06314879 -0.3466242 -0.1723607 -0.2357815 0.050462943 0.1695801 -0.1581795 -0.014218978 -0.00079652737 0.23299278 0.19816385 0.023555366 0.16134651 0.059730947 -0.103674315 0.120750114 0.06793024 0.007516357 0.041891113 -0.096215 -0.090841144 -0.042102743 0.09919573 -0.24926023 -0.028553572 0.11918303 -0.1393815 0.16092211 -0.09173669 -0.20600769 -0.0073509743 0.23988184 0.13775079 0.24677809 0.07848436 -0.12787795 0.11233228 -0.19839531 -0.042108018 -0.1785322 0.14370766 -0.046658017 -0.10330049 -0.03810212 -0.09541474 -0.14006077 -0.17445704 -0.16281912 -0.08347533 0.08156174 -0.04252165 -0.020205127 0.008618888 0.077380694 -0.084443785 0.16067058 0.14639166 0.013750792 0.12602411 -0.024737533 -0.0627382 -0.0013438757 -0.10943472 -0.029289829 0.05510626 0.06714417 0.0132297 0.079254 -0.18626127 -0.163168 -0.050000828 -0.086104475 -0.17947306 -0.28484005 0.11904471 0.05536611
314 0.07886118 -0.1841535 -0.14112592 0.061063573 0.18420501 -0.17188089 0.37843755 -0.059429247 -0.042238325 0.30827403 0.0944197 -0.17308052 -0.10896988 -0.155179 0.11826202 0.19955938 0.00527654 -0.19049908 -0.06118225 0.0047897864 0.2628478 0.22158043 -0.121233806 -0.10857413 -0.17811327 -0.024430895 -0.09791861 0.008449175 0.13321123 -0.07258437 -0.13823041 0.034501106 0.18458845 0.027498242 -0.05499759 -0.043745928 0.27409342 -0.18555152 0.049912266 -0.028902093 -0.19580281 0.14116962 -0.123112574 -0.23772867 0.060992066 -0.082119934 -0.021785835 -0.0654749 -0.0705509 -0.017255746 0.14726652 0.1341914 0.06427306 0.023138365 -0.16622749 -0.15486524 -0.006041151 -0.1972844 -0.12201674 -0.117340766 -0.12546787 0.21902668 0.035171594 -0.013905201 0.19185616 0.09304489 -0.061645754 0.011090706 0.09282684 0.022838855 0.020813944 0.025370639 -0.0030394127 -0.07877224 0.0865432 -0.119251445 -0.22248463 -0.097768016 -0.15363334 0.034327004 -0.17264543 -0.1501927 0.014999726 0.2578606 0.19274348 -0.09046977 0.28687647 -1.5752448e-05 0.0678647 -0.0441381 -0.081739016 -0.28145224 -0.036544792 -0.13724898 0.052676782 0.061431896 0.11074658 -0.09293516 -0.018984763 0.055833783 -0.0915237 -0.08023101 -0.12538187 -0.099583335 0.06592834 0.2109723 -0.10751254 0.24805652 0.13435331 0.0060830303 -0.065981984 -0.08529061 -0.09919935 0.004827939 0.12563153 -0.03877638 0.12947541 0.01994687 -0.10097288 0.14987792 -0.13720994 -0.12445752 -0.09692869 0.11653692 -0.1341608 -0.26845148 0.1394693 -0.007572322
220 0.009007812 0.15275893 -0.019633668 -0.006312491 -0.0010297265 0.0011365626 0.15003528 -0.2449669 -0.09410504 0.18302263 0.17848977 0.03845645 -0.06559324 -0.19329245 0.18313974 -0.097489156 -0.13852082 -0.19482322 -0.2119342 -0.01996192 0.0024020192 0.16296807 -0.13271664 -0.28023112 -0.08596824 0.23765273 -0.09503996 -0.0843162 0.002686562 0.062168837 -0.016328592 0.021730637 0.009011504 -0.007472089 -0.14678249 0.2431945 0.08022735 -0.18011306 -0.020682458 0.06316754 -0.06762542 0.089228526 0.03085937 -0.028619707 0.20360146 0.066107415 -0.22439015 0.09542512 0.016448572 0.020643363 0.041690867 0.12410722 -0.05712992 -0.0019843045 -0.023943288 -0.05290946 0.12535046 -0.16919208 -0.16532908 -0.14540492 -0.15791467 -0.012196946 0.32005015 -0.06122714 0.20710634 -0.124737225 0.12177206 0.14331731 -0.18531795 -0.14391735 0.047338407 -0.1271398 -0.2474708 0.13144778 0.003849601 0.0027133203 -0.15653178 -0.0035480575 -0.1840162 -0.056239065 -0.14332165 -0.14890838 0.0379301 0.009067783 -0.05082148 0.11901169 0.13013704 -0.1052555 0.17679644 -0.0634615 0.035103116 -0.16655909 0.2749802 0.0590206 -0.057621773 -0.0073820027 -0.11355312 -0.23923533 -0.14254263 -0.29197752 -0.13328525 -0.017960178 -0.043822367 0.052460186 -0.049021 0.04363908 0.048176438 0.08082596 -0.04486736 -0.22427747 0.19895184 -0.051770467 0.05136591 0.046226703 -0.08000063 0.034631897 -0.019594034 -0.0569984 0.0031562254 -0.08001906 -0.14026393 -0.01086593 -0.041654482 0.1267747 -0.13257127 -0.22618763 0.16652346 -0.15447484
63 0.15218227 0.070027985 -0.0077041984 0.10517604 0.05369929 -0.01753049 0.025458038 -0.05597069 -0.15147524 0.06643783 -0.06912971 0.08022839 -0.025034692 -0.27202886 0.28983825 0.15759479 -0.3106529 -0.09439652 -0.15182883 0.14217289 0.1821689 0.3172568 -0.17518024 -0.28156114 -0.32552502 0.42938918 0.072442755 -0.04413266 0.022972748 -0.107746944 0.06319624 -0.026752891 -0.057732847 0.023002088 -0.25208542 0.39606613 0.03365318 -0.053916298 0.057808433 0.048968144 -0.11451455 0.025335787 0.027516797 -0.0010562652 0.23450984 0.10267706 0.021550618 -0.12536888 -0.0905667 -0.07981591 -0.032737575 0.08007176 -0.12100912 0.18976107 -0.10002366 -0.04577843 0.3027481 -0.1865792 -0.21460652 -0.09106587 0.09356723 0.00097201846 0.012781886 0.08051152 -0.07100255 -0.19345136 0.22508968 0.07294023 -0.1371396 -0.07023084 0.011775321 -0.011852385 -0.09054357 0.1936559 0.09386681 0.37099802 -0.18832713 0.0015094745 0.057908047 -0.03023377 0.08323433 -0.01975392 -0.07511832 0.17516156 -0.119497776 0.16823739 0.039425418 -0.13568208 0.13788246 -0.032108013 -0.18336248 -0.16135271 0.060536172 -0.00024171722 0.30849776 0.16419417 -0.14349493 -0.08582823 -0.054063305 -0.16037734 -0.12606949 0.062615156 -0.095944844 -0.03846922 0.08159907 -0.19067873 0.17426392 0.23091297 0.21239825 -0.10284283 -0.0033099935 -0.039329547 0.02346448 -0.08393989 -0.064667255 0.11508091 -0.034535833 -0.11423875 0.110156216 0.08269766 -0.04964091 0.060502715 0.060586788 -0.24684717 -0.21089147 -0.08089836 0.06744541 -0.029188119
239 -0.1669387 0.03157936 -0.004784649 0.11785559 -0.1840083 -0.055918124 0.16068038 -0.14113243 0.012474787 0.29512426 -0.021463117 -0.021700157 -0.007365046 -0.069705024 0.088248275 0.15957135 -0.10715524 -0.15010619 -0.20632927 -0.002492401 -0.039971482 0.054819573 -0.047911968 -0.17002271 -0.14742976 0.13463327 -0.26572567 0.004293762 -0.02392661 -0.0104443785 -0.0072277477 0.014597137 -0.08080539 -0.067581505 -0.064051904 0.045534693 0.121028386 -0.04844595 -0.07567201 0.14272241 -0.23484692 0.101432376 -0.16701265 -0.08593485 0.1408725 0.09568521 -0.11600723 0.09214095 -0.16481599 0.044686656 0.158165 0.11525448 -0.0838369 0.0018379588 -0.11837499 -0.07196338 0.07152502 -0.2535739 -0.30605888 -0.05200612 -0.19691253 0.024163648 0.34089288 -0.07755051 0.26579165 -0.16231343 0.08628897 0.02170566 -0.20491867 -0.15017067 0.0715968 -0.22616693 -0.401324 0.09037064 0.07401675 -0.03185895 -0.22398216 -0.07640685 -0.25240237 -0.04004868 -0.08607001 -0.08236159 0.09512485 0.21543361 -0.11730749 0.19646119 0.079968825 -0.3042236 0.20660874 -0.052246183 -0.052798316 0.16211577 0.3200118 0.02150986 0.052150056 0.020074554 -0.112494595 -0.31218147 -0.041022483 -0.18710649 -0.10020484 -0.06347453 0.019272486 0.09638024 -0.16536997 0.21839808 0.16722839 -0.11008859 0.019737778 -0.26069486 0.19538967 -0.20063978 -0.1786279 0.08169486 -0.20481844 0.15286247 -0.09134624 -0.047513425 -0.11139436 -0.03667738 -0.08793903 -0.05536314 -0.11480026 0.22398615 -0.1731723 -0.24955593 0.020850746 -0.095132135
65 -0.17531446 0.04683193 0.04078952 0.053364582 -0.07371267 -0.06617292 0.25254172 -0.086801924 0.0059103644 0.24175282 -0.035769474 -0.035651013 -0.039630227 0.018869357 0.1360686 0.19852334 -0.032929428 -0.19403593 -0.22990341 0.0042684614 -0.014860402 0.098400645 -0.040817868 -0.09164661 -0.20435789 0.041860513 -0.20133111 0.032087732 -0.030239169 -0.01751697 0.0011235625 0.051619608 0.04939643 -0.09447648 -0.13625081 -0.0050769625 0.08079481 -0.029468302 -0.050813682 0.05490289 -0.27246633 0.10393459 -0.18522705 -0.15133896 0.13964756 0.10589917 -0.08930251 0.10531511 -0.10945878 0.03308065 0.111755416 0.19958024 -0.058238223 0.06143135 -0.15966797 -0.069432355 0.028697979 -0.2120541 -0.2462614 -0.06044082 -0.21331781 0.032831322 0.284684 -0.038643327 0.2836407 -0.08852398 0.06452432 0.016819231 -0.11722716 -0.02687112 0.05329404 -0.10009462 -0.26618055 0.08165985 0.010613544 -0.09802809 -0.24066293 -0.032483246 -0.23995492 0.0147348475 -0.10791546 -0.1374251 0.032195717 0.18285128 -0.053734273 0.12905368 0.086277284 -0.22608006 0.14860404 -0.027753675 -0.06422517 0.03654473 0.20735317 -0.015605528 0.0212201 0.06762177 -0.06530818 -0.18737444 -0.040775236 -0.070291206 -0.14870422 -0.05184527 -0.020568207 0.043508634 -0.18364042 0.22738557 0.06712422 -0.15733117 -0.034803122 -0.14745595 0.1782742 -0.21379694 -0.21237296 0.07655169 -0.13606158 0.17661588 -0.001311755 -0.054258842 -0.052423954 0.001365102 -0.05452688 -0.045971606 -0.025725147 0.14348044 -0.14204997 -0.28610417 -0.004047105 -0.08442316
133 0.18280706 0.10865932 0.08169832 -0.03890679 0.027899 -0.045271337 0.16237848 -0.094553985 -0.069116645 0.21679921 -0.043827303 -0.016898979 -0.175122 -0.13077953 0.20138332 0.016208507 0.02645638 -0.041535582 -0.20251644 0.060892735 0.03235945 0.123425215 -0.0491407 -0.19507661 -0.2768737 0.12954664 -0.12144753 0.037439853 -0.0324378 0.051221695 0.034653418 0.093066774 -0.037764646 -0.033993144 -0.14444532 0.19502889 0.08218778 -0.0878252 -0.048045237 0.037876233 -0.2256974 0.15898407 0.0058624987 -0.10351325 0.1683191 -0.027290601 -0.25937557 0.003639061 0.011904709 0.065276064 0.14490551 0.21160732 -0.11974336 -0.005472401 -0.23868746 -0.0050878758 0.10866797 -0.025217233 -0.17244333 -0.061826464 -0.028627288 0.0048716906 0.2998136 -0.11451064 0.16895992 -0.040210247 0.07160782 0.029630864 -0.111488916 -0.30110586 -0.12272252 -0.16983755 -0.10036164 0.09656121 0.000111118236 0.03818454 -0.112928785 0.07992661 -0.15388171 0.07893722 -0.017181676 -0.12737857 0.13827893 0.099533126 -0.06588052 0.32350153 0.2151894 -0.111530125 0.17207307 -0.15650861 0.0024267973 -0.24406853 0.24961174 0.043847248 -0.096456334 -0.05149278 -0.061932754 -0.31001383 -0.08079023 -0.14340821 -0.19042464 -0.08321872 -0.05157127 0.12161932 0.054103203 0.21629268 0.002385999 -0.0013478037 -0.0072684456 -0.082492314 0.20209777 0.004184062 -0.011483501 0.04289031 -0.19560732 0.013637734 -0.020452635 -0.1554397 0.017093549 0.015097282 -0.14940222 -0.08735595 0.017862704 0.12031083 -0.14432524 -0.09264801 0.11409293 -0.100760065
115 -0.01489128 0.06889861 0.035578065 0.015708202 0.19450116 -0.15555584 0.19725351 -0.14908826 -0.012962308 0.06437063 0.11274567 -0.0030609015 0.016554171 -0.14211631 0.25929084 0.22757605 0.053492405 -0.14871292 -0.098259665 0.05455013 0.22307163 0.32125625 -0.14476565 -0.018994864 -0.26969877 0.06838052 0.09626551 -0.0948187 -0.07118777 -0.0017295931 0.06542721 -0.004027354 0.14866556 -0.06065818 -0.21982399 0.21993138 0.10748081 -0.12624152 0.109867044 -0.08643541 -0.13944824 -0.002149768 0.052242674 -0.135231 0.21653737 0.096464954 -0.08397985 -0.057456568 0.10386678 -0.016409492 -0.0074520246 0.23261651 0.018285306 0.047814813 -0.1373656 -0.14529134 0.10081996 0.0028353196 -0.16648701 -0.114842065 -0.16225734 0.077783294 -0.008645562 0.08471321 0.12819362 -0.052605506 0.10611813 0.072641656 -0.014659123 0.12778692 0.080776356 0.01398176 -0.07910095 0.080029264 0.033934794 0.036261123 -0.21471123 0.10577143 -0.070619375 0.14693634 -0.12885158 -0.1302358 -0.1504524 0.2805405 0.09508899 0.059855677 0.073302396 0.053455174 0.13305628 0.014116074 -0.049265087 -0.24546146 0.092943646 -0.12855761 0.146013 0.14653432 -0.063672274 0.048383858 -0.1787711 -0.14277609 -0.20982143 0.025983682 -0.13179381 -0.07956295 0.05410624 -0.03245313 0.017380163 0.18473253 0.08980374 -0.026980225 0.11818187 -0.0868351 -0.12757125 -0.03878003 -0.12176672 0.021487033 0.041301776 -0.105510436 0.030269496 0.12146375 0.006558407 -0.04240573 0.15616566 -0.27542743 -0.23056087 -0.3918993 0.17164975 0.045672193
179 -0.060024258 0.075846106 0.054530732 0.03716943 0.28041378 -0.15378484 0.28415662 -0.0860895 -0.0422595 0.07010298 0.12775035 0.05341732 -0.016786274 -0.13595892 0.3219163 0.28736454 0.031154107 -0.18495469 -0.14830011 0.13173877 0.23269047 0.34751603 -0.17716251 0.0267812 -0.30160153 0.108131 0.15277055 -0.13383362 -0.022343412 -0.0014973925 0.12866463 0.027574532 0.13193922 -0.081294924 -0.27670217 0.23228136 0.0826634 -0.10263021 0.09276049 -0.15231733 -0.20716666 -0.0014970939 -0.03141333 -0.097078316 0.22808821 0.10932469 -0.0495704 -0.030031033 0.09799082 0.03544507 0.04047739 0.3102374 -0.03293 0.17362154 -0.16080332 -0.10342045 0.15636057 -0.06512051 -0.15311551 -0.16074182 -0.15849262 0.04953971 -0.066953965 0.15011106 0.1041613 -0.10128441 0.15947135 0.09662058 0.0010068424 0.15739055 0.070145406 0.063153364 0.009070074 0.13520707 -0.0052057263 0.16396675 -0.26932743 0.086807966 -0.0772129 0.19433387 -0.11000864 -0.12860712 -0.17198148 0.28196147 0.061675448 0.0138035 0.06715615 0.05309613 0.14495613 0.08366994 -0.1260121 -0.28893086 0.014162824 -0.1666816 0.22123022 0.2696529 -0.046497144 0.116573624 -0.19940057 -0.06559003 -0.2606316 0.00035725118 -0.19522585 -0.05147951 0.079941556 -0.042420063 0.052694324 0.13488708 0.061568685 0.024561008 0.13291033 -0.11316155 -0.14365163 -0.06863768 -0.08225221 0.058728926 0.08893052 -0.1528577 0.06670788 0.13546962 0.03620999 -0.04136101 0.22946462 -0.35112146 -0.2793648 -0.42245573 0.1386136 0.05166277
101 0.054671194 -0.057463046 0.0018442017 0.16811696 0.13974987 -0.027908446 0.072962485 -0.03487687 -0.1177793 0.13683507 -0.08883832 0.13359231 0.044103175 -0.24395812 0.30763987 0.30741143 -0.18069161 0.00034203823 -0.12814312 0.12251558 0.1794698 0.36943915 -0.22933665 -0.1730791 -0.4048178 0.3784501 0.10545265 -0.018208798 -0.065574154 -0.11666111 0.1393145 0.029082749 -0.009128123 -0.041953757 -0.22684588 0.36007872 0.045021016 -0.033250794 -0.0090036215 0.035454437 -0.18688849 -0.042906933 -0.044604804 -0.047652695 0.31372797 0.15179731 0.12990953 -0.124693945 -0.15400958 -0.0536868 -0.027667502 0.14156927 -0.11864782 0.080029376 -0.12527536 -0.039532553 0.25518313 -0.1618036 -0.21239701 -0.090794004 0.06740709 0.035129827 0.009767586 0.22438611 -0.1060821 -0.23846063 0.21725738 0.1114086 -0.056612607 -0.0011263042 0.060608022 -0.09423606 -0.056241393 0.16685148 0.07980887 0.36651656 -0.24408811 0.045301013 0.05211095 0.07395073 0.036328554 -0.056665346 -0.09155177 0.2088932 -0.09916732 0.12214454 -0.07019323 -0.16400364 0.17280045 0.0026572917 -0.27798152 -0.03766532 -0.04581556 -0.055043284 0.31868562 0.28203806 -0.16829781 -0.0015378669 -0.14705965 -0.09805943 -0.13174665 0.09717055 -0.16947564 -0.033034533 0.02495238 -0.16695565 0.29402745 0.20025472 0.21282984 0.005795095 0.048733763 -0.090622425 -0.06197333 -0.102563985 -0.112897225 0.09929896 -0.021220692 -0.087146126 0.16350166 0.14911124 0.0049890107 0.032247983 0.109147176 -0.37940606 -0.25809824 -0.19634652 0.043667775 0.04112934
279 0.10844336 -0.11454907 0.016338734 -0.07344269 0.19882572 -0.22442836 0.2752917 0.07650383 0.031322606 0.104138754 -0.08268927 -0.045136705 -0.11918385 -0.019660853 0.102559954 0.2293105 0.12718745 -0.09634863 0.07171681 0.06020363 0.20673347 0.11448419 -0.119152576 -0.28911954 -0.29351422 0.024894932 -0.09655933 0.095578425 0.050070915 -0.16023973 -0.12559034 0.07203303 -0.083453715 0.07914091 -0.060436353 0.102602 0.10387007 -0.04243276 -0.07184724 -0.01451679 -0.108587965 0.09162246 -0.04403949 -0.13496947 -0.0135013955 -0.14335257 -0.07428128 -0.186025 -0.11924502 -0.014190416 0.19112107 -0.03646881 0.023528958 -0.08237778 -0.274276 -0.27667636 0.19173087 -0.057354942 -0.16503884 0.14833497 0.072171226 0.29169118 0.070183374 -0.11021227 0.024742084 0.08653085 -0.14345977 0.17129055 -0.002064518 -0.124248296 0.021757819 -0.04962395 0.037126504 -0.061569452 0.16001183 -0.087746434 -0.070454195 -0.040785633 -0.31101763 0.09794932 -0.08063454 -0.15902898 0.018700562 0.2594774 0.009677183 0.29519364 0.21783698 -0.24863392 0.027483135 -0.15256916 -0.14411932 -0.18045399 0.017462017 -0.06816382 0.11539328 0.15661141 0.013815156 -0.19926068 -0.08959486 0.06803314 -0.17584802 -0.085198276 -0.048661254 0.034110885 0.06569715 0.116745785 -0.019109484 0.12738818 0.1297393 0.13796729 -0.013762801 0.038972672 -0.036131755 0.05379842 -0.056579623 -0.0006169141 0.07805714 0.07824461 -0.05019855 0.10439546 -0.1963973 -0.15338624 -0.02929458 0.032543022 -0.14654084 -0.23936921 0.04890321 0.13644655
50 0.09364915 0.012812869 0.031831693 0.053759973 0.2135138 -0.14438035 0.19054165 -0.08005527 -0.06523546 0.08384038 0.044925973 -0.0050366386 -0.0063670618 -0.19657108 0.30670658 0.30812988 -0.016292755 -0.09249547 -0.10849931 0.10333049 0.30588692 0.3529725 -0.17989407 -0.04739554 -0.37369177 0.16599548 0.113613494 -0.08066503 -0.03668346 -0.011055337 0.10911328 -0.017344203 0.12651981 -0.05095801 -0.23800766 0.2867979 0.09945766 -0.117277086 0.12009216 -0.08694714 -0.18305488 -0.0061129555 0.009937414 -0.12124359 0.2635443 0.08153991 -0.0538394 -0.12704772 0.051015705 -0.054556374 -0.009730935 0.21697646 -0.037065588 0.102714404 -0.15855236 -0.13040733 0.15284722 0.020151023 -0.19027238 -0.16672626 -0.070797004 0.03827758 -0.08868085 0.13755883 0.032520123 -0.09484824 0.14123121 0.04620687 -0.022397613 0.09373488 0.014147514 0.027706338 -0.017334793 0.12536074 0.039544616 0.1872868 -0.2027155 0.09824198 0.014626652 0.17048359 -0.047043737 -0.113425374 -0.13894834 0.33768153 0.06752786 0.06060869 0.065688126 0.037230328 0.170082 0.018823601 -0.101260304 -0.28274637 0.041835003 -0.12262002 0.18802436 0.1467077 -0.07944949 0.057056148 -0.14891429 -0.14187714 -0.15157162 0.03256262 -0.15863279 -0.07542866 0.11641332 -0.062134687 0.014578898 0.19822875 0.1934352 -0.05898337 0.079886496 -0.0779749 -0.12134119 -0.11520294 -0.0977606 0.06268061 0.021475008 -0.13086885 0.072383866 0.14386307 0.025867945 -0.0010345324 0.17728502 -0.32178596 -0.25027117 -0.2763853 0.14355287 0.06033728
1 0.1280809 0.033897802 0.024091806 0.08611072 -0.0039297272 0.025223777 0.14488894 -0.058656186 -0.12931737 0.2893094 -0.057319786 0.038108125 -0.14276718 -0.20959876 0.18562564 0.023341006 -0.09267397 -0.05802436 -0.24061167 0.1062031 -0.020193856 0.11434483 -0.06986741 -0.22917965 -0.2991562 0.235857 -0.16313 0.022339068 0.010683395 0.03483518 0.0465541 0.10529304 -0.06898202 0.0041111824 -0.10716333 0.19000196 0.11353094 -0.06808965 -0.09980644 0.09866653 -0.24517146 0.19031218 -0.090595566 -0.07141964 0.16077594 -0.027228313 -0.13378853 0.023407903 -0.117490724 0.13079946 0.21578166 0.20540877 -0.18984489 0.0820996 -0.18931864 0.098144285 0.12942612 -0.19121347 -0.17571065 -0.09376792 -0.009167653 0.004951276 0.34233865 -0.09660965 0.115511686 -0.086771265 0.14219569 0.03248939 -0.09793108 -0.39018947 -0.12625884 -0.26701522 -0.11087074 0.10134062 0.014755741 0.1783114 -0.15903504 -0.015004884 -0.11810603 0.0030014694 0.0066524753 -0.082071036 0.20499377 0.058137387 -0.1522629 0.24334155 0.20183118 -0.17020324 0.1723702 -0.1277785 -0.058345012 -0.15727727 0.15726206 0.07890007 -0.05778789 0.029378625 -0.10262836 -0.37182477 -0.027315218 -0.10726741 -0.18618055 -0.10893397 -0.10095693 0.17165999 0.02023049 0.2357117 0.14973837 -0.014459826 0.022086486 -0.086046025 0.15136638 0.0050776545 0.03819092 0.06295517 -0.19479032 0.024476985 -0.037256934 -0.22560261 0.03395893 0.024248824 -0.18647805 -0.05518414 -0.027840741 0.20004554 -0.14103977 -0.01520011 0.09544822 -0.17391479
199 0.018510126 0.08701442 0.054379325 7.133206e-05 0.20432755 -0.110857606 0.2538902 -0.113315135 -0.04189447 0.0541932 0.105590686 0.06033229 -0.027979653 -0.16721167 0.32107976 0.25384468 -0.020267265 -0.16544007 -0.14662753 0.1001771 0.232648 0.34006503 -0.15955009 -0.037197106 -0.34163135 0.14525278 0.11213994 -0.1275866 -0.04717127 -0.0413815 0.10527875 0.007312129 0.13646978 -0.063943736 -0.25775054 0.2529754 0.07878556 -0.104428865 0.11295746 -0.11831909 -0.15556958 -0.006904916 -0.0017515022 -0.10013224 0.23399845 0.06270167 -0.044099346 -0.031452313 0.09411612 0.007181925 -0.0021127323 0.25616667 -0.03829087 0.17390516 -0.1421886 -0.11279342 0.16091402 -0.03859278 -0.18047664 -0.14380917 -0.14427766 0.03299577 -0.030352158 0.14454764 0.106080666 -0.11945586 0.15030617 0.098794684 -0.031004496 0.106000215 0.06844096 0.06336405 -0.005285699 0.15257695 -0.020283412 0.17674401 -0.21699725 0.08474211 -0.035287805 0.14574352 -0.07169537 -0.15295906 -0.17505096 0.2604764 0.030999893 0.03848732 0.06515976 0.04543689 0.13917145 0.056574464 -0.1196041 -0.30495387 0.043835558 -0.1455321 0.18701454 0.21669403 -0.049045917 0.09414208 -0.19771715 -0.11755404 -0.21713321 0.033472262 -0.11673542 -0.051248744 0.06774725 -0.04878938 0.029462464 0.17172797 0.07816535 -0.044438258 0.11433568 -0.09104137 -0.11872541 -0.07728186 -0.081999525 0.06483946 0.06810497 -0.120702334 0.10165633 0.12419282 0.0025902325 -0.033213735 0.19216113 -0.34268433 -0.27530935 -0.37890482 0.13831025 0.04379595
217 -0.08159193 0.06180929 -0.024889855 0.09125381 -0.13600217 -0.043677118 0.19730243 -0.19865938 0.00791155 0.32489258 0.11928787 -0.049617294 -0.06887594 -0.0836245 0.13953118 0.05298604 -0.12104119 -0.19302829 -0.21476428 -0.013518575 -0.048242666 0.070066884 -0.0089226365 -0.19117087 -0.100656174 0.11467327 -0.20824629 0.012620413 -0.009588298 0.052520327 -0.0014415445 -0.05973544 0.010156522 -0.04333182 -0.033160694 0.0024463173 0.15451245 -0.14205869 -0.05628363 0.13735348 -0.24531169 0.13376206 -0.15562098 -0.088983774 0.19399628 0.060840562 -0.22350594 0.13696028 -0.0939721 0.12170664 0.122304656 0.17154297 -0.029123925 -0.013285331 -0.08637398 -0.03906426 0.039454624 -0.21541524 -0.27521718 -0.10125814 -0.23914672 0.050822187 0.35764962 -0.085191704 0.3233835 -0.0976159 0.07507621 0.040754396 -0.1965241 -0.16661952 0.070641905 -0.22237036 -0.37118497 0.06867491 0.06754939 -0.055845007 -0.1919153 -0.033509307 -0.2713457 -0.07828603 -0.12843446 -0.10525918 0.10098734 0.16862978 -0.04627186 0.14766854 0.16567609 -0.23104759 0.15977521 -0.059233744 0.053232167 0.027328413 0.3495859 0.0037973844 -0.044053502 -0.023453502 -0.062171347 -0.35128742 -0.06620469 -0.22885147 -0.08936655 -0.11560462 0.021170303 0.10134651 -0.106457934 0.26615718 0.060211945 -0.031467777 -0.02026033 -0.27178103 0.2136884 -0.15046659 -0.11260629 0.11071062 -0.18077792 0.09383347 -0.09916765 -0.08538242 -0.1366855 -0.012886592 -0.1086756 -0.033105787 -0.08765197 0.26134586 -0.14777362 -0.2471932 0.09898759 -0.12124244
12 0.10083812 -0.13327423 -0.05605058 0.0012803741 0.04727449 -0.18313853 0.13556397 -0.10285818 0.032688603 0.28763938 -0.01718635 -0.034913376 0.049606893 -0.080085576 0.13085136 0.21115084 0.15143408 0.0685905 0.07261443 -0.050062235 0.13108307 0.16355765 -0.13657536 -0.27904335 -0.27526334 0.05128745 -0.06802988 0.21536526 -0.11642062 -0.124259785 -0.05380296 -0.007847569 -0.0072910455 0.008939753 0.01983067 0.11407283 0.15451133 -0.16465811 -0.056939106 0.13058946 -0.08770748 0.030331472 0.0016984439 -0.21218993 0.2669808 0.055044226 -0.07538957 -0.08895523 -0.22929028 -0.16291812 -0.0365235 -0.013828385 0.089919105 -0.41362533 -0.14397858 -0.1901723 0.09984826 0.06554068 -0.15484165 0.022052977 0.034469213 0.2652161 0.25061706 0.071488656 0.10266927 -0.013846473 -0.102511615 0.14298585 0.020080725 -0.04446321 0.11031908 -0.20102158 -0.1770026 -0.06510774 0.11992911 -0.19688469 -0.047703966 0.035999034 -0.16245396 0.08309431 -0.070620224 -0.18037549 0.0055308007 0.19895138 0.07722886 0.27093965 -0.021414505 -0.26386356 0.09249261 -0.21422619 -0.11338407 0.007576 0.118067816 0.021467924 -0.069412045 0.008895154 -0.14817868 -0.24409488 -0.14826874 -0.16384578 -0.02176335 0.06726185 -0.0033527194 0.0024795248 -0.074161634 0.08623014 0.047052708 0.1793894 0.2041294 -0.0044812285 0.118482135 -0.0723037 -0.040140137 -0.011006191 -0.07046056 -0.032994878 0.015731167 0.15166141 0.039171576 0.070118815 -0.20720413 -0.09749026 -0.15641485 -0.05438028 -0.17904787 -0.22997028 0.12154293 0.06253269
256 0.21125408 -0.1491719 -0.08314867 -0.08326325 0.13059829 -0.25575286 0.22685952 -0.089758396 0.06324513 0.22889121 0.04675995 -0.14729705 -0.006664387 -0.051741254 0.10902488 0.16029 0.14222892 -0.024824666 0.16987534 -0.0629448 0.3009298 0.19278893 -0.16863076 -0.32029995 -0.23020388 0.04361724 -0.07907057 0.20873342 -0.020213922 -0.14065833 -0.17873883 -0.067153424 0.08630026 0.06522221 0.028113583 0.093343794 0.22152135 -0.21676902 0.011808833 0.14106761 -0.042321257 0.053862512 0.0135066705 -0.18726988 0.18334815 -0.03627808 -0.16201493 -0.16102208 -0.15317376 -0.15389745 -0.02731672 -0.11814177 0.19385596 -0.41631526 -0.13049799 -0.29588863 0.100168 0.12531617 -0.16075723 0.0843586 0.0088037 0.3513126 0.15552646 -0.0049149576 0.11560082 0.104620904 -0.21047282 0.15519994 0.01014647 0.015716247 0.12446896 -0.07226614 -0.14215226 -0.12997815 0.213516 -0.26783428 0.015502127 0.009078629 -0.22471854 0.06605226 -0.12110066 -0.22746421 -0.052393284 0.30220824 0.14998911 0.25410363 0.13468473 -0.20577057 0.07358194 -0.22464126 -0.05701431 -0.1857076 0.1599224 -0.048839483 -0.025928648 -0.0011052954 -0.06758056 -0.23138264 -0.18518956 -0.1604725 -0.03627858 0.019528039 0.033904932 -0.034438297 0.049016852 0.09043041 -0.13579446 0.29360726 0.27686796 -0.012648238 0.038244683 -0.036902424 -0.030410323 -0.047239188 -0.032209493 -0.053310152 0.053129762 0.23015618 -0.047109235 0.07429755 -0.256174 -0.18775208 -0.16562977 0.013640787 -0.21606016 -0.31392372 0.15452446 0.17127253
52 0.111596145 0.052235905 0.026075386 0.018114226 -0.019699948 0.01862411 0.10090339 -0.09965623 -0.06427926 0.24785872 -0.020665001 -0.0042155855 -0.13537192 -0.16322064 0.14970307 -0.013482488 -0.05734326 -0.04059828 -0.20214583 0.061753474 0.00021275337 0.082213946 -0.059416756 -0.2514973 -0.23123655 0.18938376 -0.18025082 0.017908242 -0.0036821754 0.0295288 0.06529446 0.0688986 -0.078063905 0.017235156 -0.053272612 0.1846899 0.13087822 -0.096719205 -0.0831235 0.12252865 -0.20910239 0.18373005 -0.08271768 -0.07910407 0.16980968 -0.044280324 -0.22262716 0.01199388 -0.09110988 0.11165083 0.16302666 0.18515745 -0.11650314 -0.0023198733 -0.15919942 0.026434444 0.1358117 -0.12333811 -0.1939442 -0.08071273 -0.031155286 0.015984194 0.3467856 -0.08132453 0.15710543 -0.05869544 0.07653639 0.09398449 -0.1440766 -0.38650832 -0.06361618 -0.26779076 -0.1436099 0.10970743 0.034129918 0.104021184 -0.115400456 -9.545133e-05 -0.18233843 0.037405655 -0.0062837973 -0.10661547 0.19792037 0.09679593 -0.13413051 0.29909894 0.19150431 -0.18696639 0.16379328 -0.16312276 0.0044413432 -0.1350454 0.22914547 0.06511568 -0.0821619 -0.01854998 -0.109683745 -0.35255274 -0.09689061 -0.17682648 -0.13190567 -0.0947694 -0.031539585 0.16342074 0.0065538343 0.22201125 0.08379126 0.013162067 0.04598256 -0.1317188 0.19314036 0.0132027045 0.011239135 0.08473273 -0.21045281 -0.01838858 -0.04519215 -0.17201072 0.027947733 0.015970297 -0.1795623 -0.07846112 -0.02379055 0.20414947 -0.16923876 -0.0631214 0.121825375 -0.105133414
313 0.17992362 -0.1596285 -0.17445962 -0.0010711122 0.10953109 -0.13318297 0.26276222 -0.13929118 -0.078064516 0.27818528 0.18430863 -0.15552934 -0.05786503 -0.15566202 0.12580772 0.088854395 -0.113154516 -0.11157132 0.04165432 -0.018963614 0.2687195 0.25013074 -0.19971222 -0.25948876 -0.120760374 0.115665235 -0.05264699 0.06888102 0.08434554 -0.07111407 -0.13150693 -0.07514224 0.1713047 0.067553505 0.0023861222 0.062153433 0.270528 -0.23900746 0.06504626 0.04538401 -0.09461953 0.10285975 -0.042574625 -0.16670804 0.19208378 -0.032687806 -0.084553875 -0.099674866 -0.098259434 -0.09796759 -0.031256158 0.045120943 0.1146815 -0.13626632 -0.040870808 -0.15871574 0.073788315 -0.07952384 -0.11712121 -0.095590584 -0.026915126 0.23852308 0.11175861 0.07206002 0.1120785 0.079266205 -0.14437701 0.118482046 0.04999572 0.0039605405 0.071633555 -0.023965918 -0.051937945 -0.089289255 0.12606801 -0.106390245 -0.09815395 -0.092359096 -0.097688854 -0.014730611 -0.13557325 -0.18718894 -0.023431178 0.18457572 0.20803444 -0.03802741 0.17852384 -0.013513774 0.015909472 -0.12145798 -0.058302023 -0.2838947 -0.012935675 -0.05938528 0.012747771 0.028749991 0.04601552 -0.12742907 -0.13604777 -0.103267446 -0.03301585 -0.031698566 -0.052009568 -0.10291684 0.07206063 0.10294368 -0.09473683 0.3906404 0.20736958 -0.06998258 -0.030601611 -0.013112864 0.062121976 -0.07127502 0.17066053 -0.09378943 0.08462305 0.122753635 -0.038795665 0.11119871 -0.212086 -0.068600364 -0.15688515 0.05415212 -0.19357195 -0.2592458 0.23054114 0.02372869
263 0.090013824 0.052576844 0.028835844 0.059723362 -0.12597765 0.037849337 0.15591703 -0.10927317 -0.079425745 0.26119518 0.0059597855 -0.006459649 -0.12843494 -0.19722037 0.17144501 -0.0030262338 -0.22918032 -0.14735298 -0.28273803 0.08504076 -0.0061016018 0.11072113 -0.061296117 -0.28244466 -0.25438696 0.24749868 -0.22627291 -0.017184755 0.028707538 0.062407956 0.0494799 0.06636855 -0.06654812 -0.007469452 -0.109547034 0.18010966 0.15186556 -0.077296205 -0.08467112 0.1206835 -0.2678876 0.1726246 -0.11215771 -0.048597585 0.16092499 -0.05446788 -0.19595835 0.03998748 -0.03539548 0.14459847 0.20568563 0.17830524 -0.15243587 0.1352356 -0.12931769 0.047099188 0.116663046 -0.24219719 -0.23578314 -0.07422232 -0.13175231 -0.026375622 0.31400448 -0.14908412 0.15442802 -0.09387035 0.12875344 -0.02072094 -0.20456415 -0.3886495 -0.0658921 -0.21498565 -0.19092314 0.11814081 0.05978627 0.119959876 -0.14892407 -0.04788415 -0.14687046 -0.038374577 -0.0151087595 -0.09315866 0.20490962 0.11321586 -0.16890009 0.25096133 0.23160988 -0.16121008 0.19041541 -0.13029073 0.004040434 -0.1043202 0.26399732 0.0923507 -0.021074502 -0.0029972454 -0.06996709 -0.3498258 -0.04307892 -0.17686869 -0.16288601 -0.13666154 -0.026699528 0.15782395 -0.00054767757 0.2631848 0.092049174 -0.048074402 0.0012698406 -0.18749426 0.15494245 -0.014300531 -0.020426044 0.09446558 -0.17856942 0.049159445 -0.0699903 -0.20639841 -0.065259054 -0.018569654 -0.1448944 -0.037182257 -0.08131549 0.27869526 -0.15874347 -0.057270337 0.10953958 -0.15924518
22 0.0034428164 0.0874669 0.060612883 -0.022288527 0.06128119 0.0006799235 0.22472486 -0.043938477 -0.07533625 0.24957423 -0.06481328 0.064149916 -0.18418233 -0.1408311 0.18570845 0.025958575 -0.0054710214 -0.14148133 -0.26703954 0.086127736 -0.09944759 0.08171179 -0.092860915 -0.22250827 -0.24053955 0.1437077 -0.17856547 -0.028001573 -0.017135432 0.02821155 0.06723018 0.18211733 -0.08320429 -0.019998547 -0.16718386 0.19291069 0.03671001 -0.06225117 -0.11238683 0.018876495 -0.23837256 0.15466508 -0.103140004 -0.087086864 0.07876479 -0.06546221 -0.13703433 0.05441141 -0.09074911 0.09415992 0.24198939 0.2314669 -0.15719967 0.109900415 -0.22260456 0.0036883855 0.17160173 -0.22701865 -0.14172529 -0.06190897 -0.05999882 0.008916128 0.36929297 -0.10002897 0.14570409 -0.079569444 0.10568027 0.13441086 -0.12526841 -0.320305 -0.07637584 -0.19740522 -0.06534054 0.13319436 -0.04931116 0.068632245 -0.2225409 -0.038153753 -0.25334534 0.04289598 -0.03663407 -0.13454291 0.17889081 -0.009619094 -0.16592295 0.27876723 0.18406029 -0.20358144 0.15105067 -0.08990414 -0.09712209 -0.13219036 0.13273367 0.046651486 -0.045697868 0.075437926 -0.062233638 -0.2721663 -0.07175159 -0.060461108 -0.22144975 -0.07788631 -0.11426533 0.14405623 -0.055143367 0.21636736 0.14304988 -0.10104563 -0.096719824 -0.022177862 0.18399756 -0.016134394 -0.03681604 0.13491139 -0.16112424 0.058166496 0.034301087 -0.18123922 0.026587479 0.0073010516 -0.1564097 -0.09999507 0.010201401 0.18433118 -0.13100766 -0.12212553 0.058662716 -0.14167848
99 0.057394423 -0.011224437 0.0072031505 0.11838122 0.09902025 -0.043638766 0.09678019 -0.033510894 -0.08634599 0.091529 -0.018242555 0.07843052 -0.0018140037 -0.2283425 0.28337762 0.29683658 -0.18653136 -0.022085108 -0.12866123 0.14746475 0.20272009 0.34843683 -0.21335119 -0.15733235 -0.38186672 0.31349304 0.073385924 -0.06147178 -0.013780367 -0.09304844 0.11634646 0.022056432 -0.032816943 -0.058729816 -0.2244009 0.3520687 0.0524468 -0.013325046 0.03329731 -0.010372413 -0.18541726 -0.0043130266 -0.054209158 -0.04886715 0.24155186 0.10208174 0.04585521 -0.15838188 -0.07587881 -0.04819309 0.04255557 0.1272767 -0.13706098 0.19035374 -0.12779236 -0.043383826 0.24886246 -0.13532864 -0.22675285 -0.06075221 0.053230725 0.00037213703 -0.06164497 0.16899613 -0.052024446 -0.20375337 0.21909702 0.059953403 -0.094495036 -0.019820593 0.01928325 -0.042669777 -0.06348323 0.17865065 0.1021272 0.3430209 -0.18330938 0.03155531 0.03013002 0.059465624 0.025999418 -0.037309375 -0.11790964 0.22917008 -0.0747006 0.10960148 -0.0036645841 -0.12941098 0.1416454 0.01746122 -0.23165005 -0.09497092 -0.008249985 -0.06850957 0.37037328 0.24360779 -0.11307969 -0.022248497 -0.13377574 -0.0946887 -0.17044403 0.033090014 -0.12866136 -0.036045045 0.093481034 -0.12978885 0.17120862 0.14041847 0.190704 -0.057157237 0.061225362 -0.08194979 -0.043248106 -0.08725347 -0.11250328 0.14809842 -0.03411897 -0.11709593 0.111981474 0.14371441 0.027923351 0.033496026 0.12705255 -0.32420275 -0.27683765 -0.22030713 0.09198903 0.048185684
71 -0.2117683 0.054835808 0.030861348 0.12533124 -0.18004507 -0.051375154 0.228762 -0.17573883 0.022355951 0.33557078 0.018524077 -0.05501706 -0.047249734 -0.049288046 0.13839975 0.14829494 -0.14046022 -0.20423722 -0.26164094 0.008464552 -0.08327201 0.055689506 -0.02242878 -0.15562347 -0.13243988 0.11954634 -0.27537808 0.0032649573 -0.034798626 0.043910597 -0.0015863798 0.014190161 -0.019366253 -0.10284356 -0.08694248 -0.016929189 0.106938615 -0.059753317 -0.06948349 0.13217114 -0.28164622 0.14940143 -0.2140594 -0.07018627 0.1271978 0.109451964 -0.17341365 0.1332905 -0.11188793 0.08066629 0.19241785 0.15150881 -0.08442033 0.061362766 -0.12296396 -0.037111007 0.038206384 -0.27374578 -0.32258776 -0.08739415 -0.25825647 -0.025681993 0.3641879 -0.12265051 0.3071538 -0.16726692 0.09970148 -0.044866912 -0.22628514 -0.122313134 0.051135402 -0.20950843 -0.42488557 0.10846497 0.06159834 -0.051850688 -0.25681454 -0.090612985 -0.2851641 -0.048442174 -0.09387625 -0.078704074 0.08066496 0.22845696 -0.11103291 0.16092116 0.13808075 -0.29529563 0.2222507 -0.0024600965 0.0018692233 0.1497821 0.35895634 0.02778986 0.053823948 -0.008006515 -0.103714064 -0.3617871 -0.038156062 -0.2316306 -0.13351132 -0.10372269 0.007255985 0.071922794 -0.17197692 0.27848053 0.124524854 -0.1428383 0.00036569426 -0.29416218 0.23529233 -0.2458615 -0.21495497 0.08086956 -0.23298566 0.17310272 -0.097749695 -0.082675084 -0.16926892 -0.03287085 -0.06267175 -0.036939245 -0.09454947 0.23462114 -0.17227295 -0.2672993 0.02451499 -0.107701205
70 -0.055268377 0.04311636 0.080523185 -0.0062077967 0.3033004 -0.1861131 0.28224513 -0.042273548 -0.021431515 -0.051985227 0.0528193 0.05640047 -0.050552256 -0.066532925 0.27513963 0.32013685 0.057465617 -0.22010168 -0.10863892 0.12726337 0.26891145 0.35149497 -0.18917117 0.012114642 -0.31526887 0.031108111 0.10484745 -0.10904074 -0.0208359 -0.04170768 0.08382156 0.058058213 0.12975697 -0.059248015 -0.25056803 0.22759384 0.04451019 -0.04992028 0.09856736 -0.1417864 -0.17413029 -0.0030762665 -0.0008078436 -0.08593567 0.11549901 0.031359207 -0.011546932 -0.092841335 0.09915324 -0.0015439712 0.061687216 0.24966113 -0.014926358 0.19133888 -0.22012132 -0.1944357 0.182836 -0.07099942 -0.17002961 -0.07079106 -0.12966302 0.06818455 -0.12172052 0.11744639 0.060754072 -0.0537224 0.12733747 0.12560727 -0.021433247 0.17403933 0.07677753 0.08452651 0.055128187 0.12735552 0.030212615 0.11974259 -0.27533528 0.061318103 -0.14665264 0.19476694 -0.14016038 -0.16480483 -0.19352305 0.31920844 0.03894135 0.09313181 0.11700146 0.00086883135 0.110939905 0.05454087 -0.119727895 -0.30115172 0.012483475 -0.18497182 0.26837003 0.2795136 -0.012995922 0.10190077 -0.18357012 -0.037042033 -0.28666538 0.0045669484 -0.19888395 -0.07876832 0.069860205 -0.024840811 0.03839525 0.15214223 0.10418009 0.06001005 0.09072221 -0.09263429 -0.18132693 -0.03595765 -0.07713456 0.08428273 0.097911455 -0.09227194 0.060786594 0.1676021 0.054328255 -0.0419325 0.25124246 -0.32572994 -0.27378967 -0.45327717 0.11457621 0.10373323
45 -0.12388477 0.058405258 0.009706908 0.10536293 -0.19255929 -0.0955587 0.12605108 -0.13287218 0.008653458 0.18346713 0.034262985 -0.03706913 -0.0013171185 -0.011130759 0.12838975 0.14226751 -0.21950759 -0.20322359 -0.19968343 0.03346116 0.053018883 0.08237129 -0.046363357 -0.21453083 -0.082001545 0.16181621 -0.22672717 0.024280773 0.028751105 0.008538248 -0.057849765 -0.060850013 -0.03123056 -0.021191055 -0.067927435 0.036449563 0.07878668 -0.024937717 -0.019553514 0.1659717 -0.14760593 0.10126125 -0.11033811 0.0030618727 0.11480982 0.112697564 -0.17934006 0.080699764 -0.06433329 0.068468876 0.09000358 0.011336464 -0.015592499 0.06331803 -0.08392483 -0.08094149 0.12656078 -0.19689637 -0.31922853 -0.003198104 -0.20166522 0.0036281024 0.23798287 -0.13887054 0.21507834 -0.15820675 0.12683013 -0.013092096 -0.2772219 -0.07619869 0.09550876 -0.1536375 -0.46432978 0.105833285 0.14953198 0.012990116 -0.16308932 -0.064832896 -0.27579036 -0.1020919 -0.0804907 -0.052420255 -0.01316481 0.30338544 -0.11023444 0.21918315 0.15500277 -0.29891843 0.16514911 -0.0016822913 0.04580234 0.107579835 0.40349376 -0.012411653 0.15759854 0.019493265 -0.09901805 -0.346117 -0.04460363 -0.25508133 -0.13510789 -0.09226116 0.06507544 0.06256024 -0.0849701 0.16248953 0.065390654 -0.04392969 0.0749143 -0.3205908 0.18658026 -0.21906471 -0.16495045 0.03987283 -0.23734342 0.1767778 -0.16571605 0.0021579803 -0.16339694 -0.061754063 -0.087028235 0.019603468 -0.06353591 0.15016459 -0.17114128 -0.23599035 0.015163947 -0.013325684
78 -0.016938275 0.056077715 0.039648414 -0.03900239 0.25209606 -0.22028916 0.28140864 -0.10713621 0.0043305876 -0.0008097597 0.101375766 -0.03537372 -0.043360613 -0.07790166 0.26126865 0.29584792 0.10099616 -0.18669374 -0.08728705 0.06654289 0.28788152 0.3306705 -0.14304514 -0.0043299096 -0.31116527 -0.0036573138 0.112694025 -0.073328085 -0.031550866 0.0004680883 0.04356346 -0.028609369 0.17203918 -0.043381747 -0.2162693 0.19741558 0.10305515 -0.13204661 0.13107945 -0.13235474 -0.12535018 -0.0037068166 0.06212095 -0.15445213 0.19888574 0.07156995 -0.09945695 -0.08933763 0.10264553 -0.024049554 0.005984535 0.24341494 0.0291204 0.06844943 -0.2328688 -0.20930147 0.15610462 0.022399722 -0.16565351 -0.14031246 -0.15702093 0.096996 -0.05627319 0.08235342 0.15259552 -0.009771347 0.08401759 0.07371593 -0.011794703 0.1699079 0.06596091 0.05812165 -0.0519695 0.11866666 0.026532786 0.026686393 -0.22087829 0.09649182 -0.12069766 0.16556396 -0.13510573 -0.15288372 -0.16568176 0.3421583 0.12911715 0.089188434 0.11380647 0.04749129 0.11015734 0.016608117 -0.038346514 -0.36237434 0.06780392 -0.1695374 0.14989698 0.17017247 -0.0063762474 0.06110885 -0.1975959 -0.124340445 -0.22467056 0.03303692 -0.14995702 -0.08932881 0.112549424 -0.004649857 -0.05745658 0.1567495 0.09914188 -0.034479212 0.101698995 -0.09538125 -0.17676066 -0.06642985 -0.030218577 0.025417184 0.09996017 -0.07977853 0.036720455 0.10973159 0.014885356 -0.027860088 0.1686748 -0.24585152 -0.22164641 -0.39071116 0.14896621 0.12952198
121 -0.07184261 0.115477085 0.05519491 -0.06393294 0.26805836 -0.15065175 0.28233078 -0.13265455 0.014781072 0.01013459 0.12868115 0.06170061 -0.041914828 -0.098895274 0.29401493 0.21317554 0.09988777 -0.19426766 -0.13371056 0.07075517 0.20445666 0.33808944 -0.19582109 -0.023086157 -0.2925377 0.05030455 0.13805005 -0.1486285 -0.08502913 0.019846074 0.123220615 0.060834143 0.14385596 -0.08177122 -0.24560931 0.29054514 0.024926974 -0.12594658 0.09705622 -0.14840977 -0.15591918 -0.0030499673 0.050910935 -0.109560676 0.20060264 0.043240923 -0.11365182 -0.012530978 0.13317282 -0.021486724 0.018255036 0.30963105 -0.009833695 0.09669296 -0.1821147 -0.1316504 0.16298549 0.037972163 -0.11941621 -0.109808624 -0.16389768 0.07345646 0.04460661 0.10153043 0.13546784 -0.066967905 0.1258602 0.15436506 -0.015741244 0.13973558 0.068913065 0.03512674 -0.020298606 0.13107343 -0.037451316 0.020810261 -0.21864805 0.15295053 -0.123127215 0.19087043 -0.14647353 -0.20004976 -0.17144945 0.2142905 0.09285949 0.06344464 0.07237801 0.031516325 0.1250039 0.0461729 -0.059741136 -0.33996662 0.051558416 -0.14337566 0.12979059 0.21514027 -0.046444766 0.095104784 -0.25261882 -0.124734834 -0.251154 0.032282088 -0.16183709 -0.06378813 0.04245922 -0.014266246 -0.012905943 0.11325751 -0.0054494743 0.003395597 0.18390757 -0.06732883 -0.12889366 -0.031136287 -0.089785196 0.023617493 0.09080325 -0.122410595 0.09349791 0.093384355 0.005484349 -0.05796924 0.19076696 -0.3221219 -0.24717318 -0.42601445 0.16138586 0.048891153
67 0.07973807 0.03402265 0.00406927 0.0430737 -0.034046426 -0.00067661685 0.19584428 -0.11418467 -0.073190056 0.29128832 0.033340108 0.018841514 -0.15378986 -0.17668055 0.16116098 0.0016184031 -0.123550154 -0.1322664 -0.23742995 0.0858016 -0.03911225 0.082281396 -0.049528923 -0.25085118 -0.18476242 0.21031483 -0.17376697 -0.031799216 0.02317979 0.047719494 -0.01728462 0.06371947 -0.06351815 0.018233035 -0.10972339 0.11761087 0.12895754 -0.08978013 -0.08978809 0.09180456 -0.2133503 0.1657815 -0.08402993 -0.017111247 0.12710205 -0.008083851 -0.16785826 0.0669242 -0.08549388 0.10609683 0.18334289 0.14107141 -0.12959476 0.08674717 -0.14575091 0.03743176 0.12091 -0.22532046 -0.16377406 -0.10025115 -0.0802087 0.00103066 0.31090605 -0.14091162 0.194591 -0.102596454 0.097598515 0.053255275 -0.15947932 -0.31071857 -0.03955886 -0.21181287 -0.2023359 0.08402109 0.012229174 0.10120875 -0.1595372 -0.05538665 -0.18324542 -0.054566156 -0.04417489 -0.09336997 0.15744375 0.08003021 -0.10874633 0.21402697 0.21507768 -0.16955724 0.14731394 -0.07927312 -0.022250876 -0.09997702 0.2224592 0.040872186 0.0010933052 0.014806885 -0.04517343 -0.37576556 -0.033083793 -0.15760142 -0.16660638 -0.12247694 -0.0419986 0.11843405 0.0074440627 0.24033195 0.08223339 -0.0040769638 0.0044910437 -0.15252954 0.12692863 -0.04912898 0.00078157545 0.07065323 -0.13569884 0.039975047 -0.051836506 -0.13717535 -0.06724436 -0.038831305 -0.1470722 -0.0708516 -0.04291474 0.2052241 -0.14593029 -0.11156036 0.11224415 -0.12011878
21 0.12093811 -0.07191846 -0.021523645 0.14072469 0.15026116 -0.058169417 0.07944309 -0.033347964 -0.11053123 0.11913158 -0.066919506 0.09596522 0.024406834 -0.2820183 0.298194 0.29513282 -0.21928115 -0.006917968 -0.090308376 0.13907178 0.20700328 0.38274708 -0.25580806 -0.22299404 -0.37377164 0.33995083 0.053360518 -0.014389508 0.0004903884 -0.12846488 0.090833075 0.02640236 -0.00095565256 -0.019472655 -0.19069421 0.3779803 0.07752174 -0.06206015 0.04724152 0.047116537 -0.13347748 -0.02519061 -0.016149702 -0.05509697 0.2644732 0.106492594 0.1013811 -0.17563835 -0.104548134 -0.06936283 -0.017489124 0.09825582 -0.10963208 0.08226949 -0.10173644 -0.055708285 0.248662 -0.12802736 -0.21355681 -0.08313708 0.07343294 0.014114518 -0.02448558 0.16823734 -0.13183026 -0.16152996 0.21737207 0.089153 -0.022568157 -0.051038217 0.024682676 -0.05902592 -0.027448853 0.10095571 0.0987146 0.32328233 -0.20753409 0.008663988 0.06066314 0.028607491 0.041698914 -0.049426395 -0.08790199 0.20087688 -0.0769767 0.111280344 -0.01789811 -0.0932087 0.16864406 -0.0028036258 -0.2394843 -0.11926888 -0.0564468 -0.041806385 0.3049384 0.20086995 -0.14490023 -0.011783277 -0.102761395 -0.10922891 -0.10521965 0.08243928 -0.16126122 -0.05355851 0.06522095 -0.15133718 0.21143872 0.24780165 0.2687844 -0.022578541 -0.008010135 -0.07171158 -0.012630535 -0.107420795 -0.08653503 0.09948952 -0.039775115 -0.070896715 0.13866407 0.1422102 -0.041156255 0.022754781 0.0747673 -0.31474465 -0.24850543 -0.12519734 0.076308295 0.032977466
296 0.18340474 -0.16798863 -0.11594867 0.009677007 0.18719906 -0.2347255 0.37309417 -0.080233976 -0.0052315616 0.21443425 0.14993657 -0.19529884 -0.10705595 -0.13920438 0.1740634 0.18380822 -0.02721064 -0.17690586 0.032724746 0.04097406 0.36770645 0.2527533 -0.100212514 -0.16246685 -0.17590266 0.018960802 -0.014411229 0.044553313 0.124459885 -0.03876253 -0.14724644 -0.10591205 0.19375418 0.06793842 -0.026956482 -0.02528492 0.30060455 -0.19660065 0.11624966 -0.04008305 -0.14158261 0.12906198 -0.08056897 -0.14576283 0.07403689 -0.095704235 -0.13362671 -0.13277261 0.011138141 0.032531917 0.110690266 0.07473358 0.10656025 -0.03595556 -0.12879194 -0.21340695 0.06162179 -0.051927365 -0.121796995 -0.078786135 -0.10849381 0.23786524 -0.08270022 -0.020387394 0.16356201 0.15892999 -0.13205777 0.039336976 0.048468288 0.018193876 0.02919012 0.037789617 0.0017056935 -0.09073575 0.14378516 -0.040128518 -0.08298371 -0.06351142 -0.15140224 0.0376516 -0.13844164 -0.13468157 -0.029324882 0.36461598 0.18759102 -0.008558498 0.34745353 0.02844298 0.029642144 -0.08370751 -0.016126188 -0.37311342 0.05527389 -0.17202763 0.0666468 0.048782066 0.11043989 -0.12731627 -0.12512985 -0.03895389 -0.10418252 -0.0975875 -0.036958113 -0.04292618 0.20849824 0.17356579 -0.19675648 0.3304051 0.20345312 -0.0060053915 -0.041307252 -0.016902365 -0.038589153 -0.039352126 0.07612047 -0.053450394 0.10047578 0.03937908 -0.10019227 0.14952621 -0.17519084 -0.119461164 -0.03105866 0.064027704 -0.21254997 -0.30804345 0.19313061 0.124526076
64 0.023418793 0.25029892 -0.051382255 -0.027228024 -0.10975941 0.0046659964 0.12685983 -0.36240837 -0.16096352 0.18370436 0.24561481 0.07936789 -0.10447652 -0.25814456 0.18309398 -0.26138914 -0.29108876 -0.22774999 -0.25425145 0.0014563901 -0.022749918 0.17042749 -0.16872814 -0.42578283 0.0049954727 0.37398663 -0.12558283 -0.088477775 0.04015384 0.03643437 -0.038259905 -0.053008534 -0.025378225 0.07827593 -0.113173 0.29591444 0.07398625 -0.27899387 -0.0072839735 0.14225478 -0.07062887 0.13745877 0.060831167 0.023606258 0.28081885 0.088454485 -0.27126366 0.17135003 -0.022550235 0.017860005 -0.06272717 0.1398403 -0.0608846 -0.02084996 0.06907946 0.0086906245 0.19819349 -0.22192958 -0.16713811 -0.17533483 -0.11743423 -0.008363433 0.3989013 -0.07712133 0.21609777 -0.15563126 0.1415785 0.18602674 -0.23349965 -0.16259937 0.064691365 -0.14844137 -0.30898762 0.15444812 0.0083284965 0.03346672 -0.15179409 -0.009926251 -0.21240656 -0.15474127 -0.14690278 -0.15171327 0.05720049 -0.041353464 -0.01901347 0.10960439 0.1291026 -0.10568579 0.14333427 -0.06471621 0.054805413 -0.22491719 0.3108902 0.09075406 -0.076571465 -0.024936527 -0.14112157 -0.22764109 -0.17850958 -0.36019278 -0.07803518 -0.04024761 -0.008858897 0.018995956 -0.036117565 -0.018553585 0.013938437 0.20597805 -0.037655372 -0.32838738 0.19240057 -0.047310334 0.14040145 0.026423885 -0.07245849 -0.0050464203 -0.0057316194 -0.06573837 -0.018233724 -0.12599264 -0.1958268 0.037408046 -0.103715606 0.15360515 -0.16985556 -0.24649523 0.2318915 -0.20409188
124 -0.15670861 -0.12370555 -0.09119013 0.01982205 0.28770703 -0.012227365 0.39623633 -0.023225538 -0.10526653 0.17115706 0.08205809 0.19320361 -0.08396809 -0.15456752 0.29334986 0.1947946 -0.047806904 -0.244588 -0.16345508 0.08251009 -0.02239486 0.28967237 -0.31884524 -0.17062475 -0.2158937 0.23271646 0.10915052 -0.11285992 0.020768767 -0.15533106 0.07909295 0.14481372 0.059989426 0.006705301 -0.19762634 0.21675898 0.09883173 -0.11548305 -0.045883134 -0.09314823 -0.16922233 -0.0013673968 -0.10176634 -0.05853706 0.17277212 -0.02148899 0.20891218 0.06002835 -0.18439779 -0.025545577 0.07144153 0.21041732 -0.04169516 0.16349636 -0.12803413 -0.10567668 0.24553567 -0.39787513 -0.026378388 -0.07331515 -0.04686579 0.15324554 0.10650774 0.22067612 0.052757338 -0.057581082 0.017592244 0.32823965 0.039443675 0.045046873 0.18798184 0.0065461015 0.14490072 0.051794674 -0.0035548976 0.1161935 -0.31094936 -0.105424084 -0.1833742 0.03638712 -0.16845028 -0.22941937 -0.014931041 -0.027620213 -0.02973775 -0.08765573 -0.022330852 -0.15612128 0.053960446 0.096998684 -0.31955475 -0.15247574 -0.28856668 -0.059795793 0.17706056 0.44212282 0.0039891475 0.070837036 -0.16670665 0.113694064 -0.20016897 -0.014049946 -0.22728866 -0.06229318 -0.12322149 -0.012707625 0.20275585 0.17118262 -0.049624015 0.1865036 -0.015437728 -0.053321406 -0.0029649762 0.046553478 0.19090985 -0.0016490407 0.24964884 -0.0058788327 0.117301 0.09592047 -0.07815913 -0.08052425 -0.00343199 -0.1481231 -0.24005844 -0.3839943 0.13190418 -0.01622081
294 0.19116603 -0.12735449 -0.13429607 0.02962338 0.109025545 -0.1560021 0.3204727 -0.110909045 -0.036502562 0.24789372 0.16178043 -0.20651573 -0.117684215 -0.14531246 0.16715407 0.16323026 -0.102315366 -0.18683483 -0.013176147 0.027629001 0.30376163 0.2750841 -0.10006746 -0.18180485 -0.17244534 0.057173222 -0.053895637 0.043308776 0.10049373 -0.040337212 -0.12573375 -0.12448878 0.20696534 0.045668174 -0.024280056 -0.019896526 0.28702223 -0.19304931 0.118595 -0.0013059722 -0.19002599 0.116434835 -0.07954029 -0.19618493 0.15758012 -0.064280264 -0.15231426 -0.09566237 -0.02032776 -0.020980716 0.08452865 0.1122199 0.11496909 -0.000716775 -0.12541673 -0.13372304 0.056940157 -0.085632436 -0.1359025 -0.13767144 -0.10867281 0.21552023 -0.016414572 0.005843573 0.18600991 0.106216244 -0.10099186 -0.017901242 0.04901701 0.016402222 0.017598143 0.06744595 -0.03415868 -0.04867714 0.12145887 -0.057277817 -0.085503854 -0.07393637 -0.077645965 -0.0052651884 -0.12979308 -0.121339135 -0.030816304 0.30778193 0.2270225 -0.063644916 0.3068695 0.061252367 0.009335441 -0.090560354 -0.0065582977 -0.35083362 0.035329457 -0.1632756 0.06504213 0.01055947 0.12187149 -0.110533364 -0.08774981 -0.042734183 -0.05083299 -0.10999022 -0.017321276 -0.067871764 0.19065334 0.14404257 -0.20280713 0.3244494 0.19787222 -0.07457219 -0.03402755 -0.04434369 -0.044884223 -0.08660991 0.12064059 -0.043417014 0.11316114 0.034797523 -0.104469776 0.15524884 -0.14230038 -0.04842149 -0.07060061 0.047903936 -0.18960224 -0.2587465 0.19346477 0.072975546
75 -0.19927885 0.10636075 0.051019773 0.1577859 -0.120518096 -0.05932286 0.18341044 -0.18994956 -0.0028704365 0.27666447 0.073141 -0.019909505 -0.01795288 -0.07708603 0.13360345 0.14195342 -0.12808898 -0.19631939 -0.25884056 0.06907076 0.0070363753 0.08675683 0.002800279 -0.0961946 -0.16894962 0.094235 -0.16877684 -0.038142797 -0.04197337 0.08189926 0.06522824 -0.009817535 -0.006253173 -0.10760886 -0.11936576 0.023151353 0.08930626 -0.08221498 -0.05297209 0.05625983 -0.29024383 0.10766251 -0.16019316 -0.08089977 0.18112096 0.17113738 -0.20862862 0.1254978 -0.04767957 0.119179904 0.16689359 0.2319759 -0.08876754 0.108487375 -0.13349374 -0.02793782 0.041271795 -0.22249693 -0.27615634 -0.13378698 -0.26535136 -0.05971811 0.26119724 -0.067969486 0.26662284 -0.16162163 0.14252101 -0.024238918 -0.19894576 -0.059394725 0.057251446 -0.16466875 -0.35363427 0.121831484 0.046280608 0.01902521 -0.24494134 -0.012498547 -0.21241002 -0.017913096 -0.12966812 -0.055512637 0.034694187 0.24534704 -0.076080255 0.112938374 0.15896319 -0.17173241 0.18991159 -0.012969149 0.0038076125 0.058621753 0.3334793 -0.061081596 0.06816194 0.032603793 -0.08342198 -0.23721346 -0.04155863 -0.21436884 -0.15979585 -0.06530724 -0.021797664 0.043059055 -0.09982948 0.19208078 0.09309279 -0.11847445 -0.0068900264 -0.25216445 0.21938352 -0.20593692 -0.17396939 0.059236094 -0.23795518 0.17565559 -0.09525888 -0.13939461 -0.101617284 -0.026735166 -0.009882593 -0.024654182 0.04044081 0.11235944 -0.17976308 -0.2883958 0.0374388 -0.11329938
142 0.05439457 0.111270115 0.011870936 -0.055645023 0.014411782 0.023566565 0.17197755 -0.14505021 -0.0518293 0.2061529 0.06560195 0.076355256 -0.17769328 -0.16730754 0.18052876 -0.09690457 -0.03556621 -0.15809463 -0.24763799 0.08749904 -0.07550096 0.09177854 -0.086835556 -0.24009684 -0.17420729 0.20938772 -0.15401791 -0.07679062 -0.016208688 0.0786243 0.062166147 0.09368028 -0.045223698 0.022299485 -0.10855367 0.2342127 0.13938473 -0.13700452 -0.0800533 0.081608936 -0.19682595 0.18727626 -0.042279076 0.0022133559 0.17000166 -0.06105253 -0.2455829 0.08933108 -0.0040867613 0.16862684 0.21245617 0.23622885 -0.12924694 0.060015354 -0.13182342 0.012847766 0.18635987 -0.15734854 -0.18402009 -0.09398594 -0.13334487 0.013591167 0.41083917 -0.13202296 0.19099541 -0.05913986 0.073765434 0.13459252 -0.17095359 -0.39679137 -0.052652486 -0.268226 -0.15678239 0.11471398 -0.021024449 0.106237344 -0.12889004 0.01255406 -0.23666167 0.039008506 -0.068566844 -0.14750029 0.20779681 0.011239806 -0.14075544 0.272803 0.2045646 -0.14847703 0.15116149 -0.12586544 0.052888215 -0.23796944 0.24198109 0.050448976 -0.11899002 0.034142144 -0.08485605 -0.32614535 -0.14884534 -0.19548674 -0.19587412 -0.10762081 -0.055724267 0.18304673 0.013406278 0.22801417 0.054003254 -0.0061260466 -0.09436548 -0.14885923 0.20686294 0.011532454 0.04534199 0.1174367 -0.22628178 -0.04202063 -0.040334456 -0.21535788 0.011701411 -0.04810943 -0.15280154 -0.059664126 -0.027618982 0.23237398 -0.16656165 -0.12985149 0.17806192 -0.1301476
316 0.2193671 -0.20935622 -0.16740207 0.14965941 0.056548808 -0.1108804 0.35178974 -0.07431521 -0.11424343 0.41364482 0.1331532 -0.21443582 -0.11309339 -0.22150837 0.20219256 0.23486774 -0.14938806 -0.10268735 0.0022349223 0.041106205 0.27020642 0.25015634 -0.07082222 -0.19541237 -0.18718433 0.09142939 -0.06808648 0.061533228 0.14392838 -0.059720647 -0.17329572 -0.15913971 0.1755992 0.04783375 0.022312919 -0.117424585 0.35624874 -0.19160959 0.080719486 0.019033797 -0.21159638 0.12177343 -0.15721573 -0.1777053 0.1425979 -0.056900866 -0.042173125 -0.10951066 -0.1381598 0.039837778 0.13380729 0.084226385 0.086743236 -0.0104864575 -0.093499385 -0.061577268 0.019249797 -0.19087224 -0.15266079 -0.15714237 -0.09875842 0.2209761 -0.027832406 -0.024603898 0.18944436 0.10013077 -0.06444706 -0.090222575 0.038175337 -0.048311636 -0.02456617 0.020169182 -0.09264889 -0.09479135 0.122527905 0.013657342 -0.10866678 -0.1528563 -0.03285036 -0.065403536 -0.07471794 -0.046002213 0.05043 0.33299553 0.17208989 -0.118605606 0.3225771 0.000633528 0.05297445 -0.11582988 -0.027533092 -0.23625372 -0.012486649 -0.112871125 0.070006445 2.626938e-05 0.10899374 -0.16607839 -0.017211393 0.002475669 -0.002174455 -0.12598561 -0.03703495 -0.047470823 0.18479137 0.24227668 -0.090436794 0.3192275 0.22575423 -0.06549643 -0.08789296 -0.0779069 -0.051613703 -0.053833894 0.11938134 -0.008115232 0.01970594 0.014574927 -0.1559009 0.18234283 -0.15924037 -0.035092954 -0.123460144 0.1328257 -0.131199 -0.16373484 0.14866775 0.03623218
79 -0.030737208 0.021496017 0.054612197 0.040090617 0.22289495 -0.17380139 0.22730675 -0.122382365 -0.017126052 0.040061485 0.09362781 -0.018003238 0.041404605 -0.10876509 0.2982721 0.34428403 0.090329245 -0.1498152 -0.121633224 0.0788017 0.34344155 0.39161122 -0.14849536 0.055017285 -0.375517 -0.0034755229 0.12671417 -0.07102248 -0.063895896 0.01696022 0.07531187 0.0050647864 0.22877161 -0.11054709 -0.24290322 0.2294073 0.13230471 -0.16679597 0.13875473 -0.105141036 -0.16158222 -0.054044634 0.0658751 -0.19628268 0.26097676 0.16072084 -0.061604097 -0.09872143 0.11256084 -0.03845033 -0.037141815 0.30046466 0.025163528 0.073773086 -0.21159294 -0.20669451 0.09949656 0.03373441 -0.18700473 -0.14990515 -0.2237189 0.08312834 -0.12473625 0.14526452 0.13651985 -0.05120564 0.15684904 0.017001767 0.025828347 0.2672001 0.08798683 0.07214998 -0.07685442 0.1006071 0.07836681 0.038151007 -0.29193288 0.16900732 -0.048826925 0.20190242 -0.14839312 -0.15950966 -0.2388765 0.439901 0.1585374 0.047291964 0.0684177 0.09323071 0.16521104 0.022844978 -0.07191638 -0.2854653 0.086167976 -0.18070036 0.19180235 0.15680999 -0.0686515 0.096832834 -0.16567785 -0.17778814 -0.23090465 0.06574089 -0.162222 -0.1271148 0.07951397 0.0032742645 -0.021454636 0.199367 0.19713517 -0.051778797 0.0937853 -0.15278772 -0.228262 -0.10481126 -0.08725221 0.1051772 0.06561003 -0.097288735 0.06320834 0.14902247 0.09606844 -0.0032514199 0.1828734 -0.3695602 -0.28204927 -0.43205246 0.12935913 0.08671427
73 -0.006577757 0.094656244 0.080470584 -0.0041854572 0.25577515 -0.2041752 0.22501178 -0.15698208 0.032382008 0.009598843 0.10637501 -0.0068831407 0.010961528 -0.11713816 0.31437433 0.31224528 0.09418792 -0.16915332 -0.10783908 0.100052685 0.33773792 0.3683907 -0.15824687 0.024492985 -0.39431164 0.046321873 0.123619914 -0.091270626 -0.097742416 0.022072062 0.10085328 0.0069945874 0.1905859 -0.1119723 -0.26234436 0.2801772 0.07914182 -0.16786069 0.13074215 -0.12510079 -0.17261405 -0.021987138 0.07485083 -0.15329145 0.2597681 0.11398435 -0.1488097 -0.10690658 0.17825443 -0.034327004 -0.016093262 0.2892534 0.018106246 0.07167926 -0.21068437 -0.1989325 0.13953613 0.09488024 -0.22080973 -0.17756066 -0.19938664 0.040555384 -0.04045778 0.12984039 0.11753894 -0.08675287 0.14144023 0.040449988 -0.0147175295 0.19482954 0.051227227 0.038449727 -0.09346208 0.13453494 0.020668942 0.055991948 -0.22917037 0.1952319 -0.06974836 0.22699292 -0.11728868 -0.16156408 -0.20401601 0.3851703 0.12897617 0.11399605 0.09167628 0.104670174 0.1837572 0.023398489 -0.028332258 -0.34695622 0.14295964 -0.17239954 0.18079396 0.13847895 -0.050416924 0.100135565 -0.21417871 -0.20259194 -0.22431776 0.0639556 -0.162686 -0.10630983 0.087621905 -0.021093206 -0.046509717 0.15941769 0.13793191 -0.07362677 0.15913686 -0.11527371 -0.18840666 -0.097791374 -0.1704714 0.061900064 0.04287876 -0.14238916 0.062048156 0.121456794 0.074952975 -0.04373595 0.25181195 -0.39381304 -0.2817443 -0.4356479 0.14678155 0.088157915
292 0.23481125 -0.2064743 -0.16232114 0.13578433 0.09265073 -0.1380842 0.27893034 -0.11486823 -0.095902815 0.39587298 0.11486208 -0.2098118 -0.0561153 -0.2704538 0.1586983 0.20380534 -0.09207674 -0.07422913 0.014889833 -0.03949719 0.32766145 0.24615254 -0.08816479 -0.18283202 -0.19963284 0.08977391 -0.111963995 0.10296896 0.11869975 -0.024518471 -0.14442025 -0.10988483 0.20414554 0.062436353 0.010572217 -0.052088495 0.34433755 -0.23780148 0.07038644 0.054030854 -0.16146368 0.11508058 -0.09319103 -0.2655426 0.16964903 0.0032318628 -0.019003665 -0.1445359 -0.1755175 -0.052261174 0.087394096 0.069266 0.07942597 -0.14810675 -0.097524256 -0.13886918 -0.021895213 -0.11925534 -0.12349978 -0.18417102 -0.05415456 0.23664843 0.004767926 0.0031869188 0.18523258 0.116045706 -0.0645071 -0.034842674 0.099636585 -0.015305903 -0.007660532 -0.05204849 -0.07586677 -0.11521303 0.15126568 -0.06784487 -0.11733574 -0.066966094 -0.03236896 -0.032681543 -0.10727358 -0.09830013 0.061062776 0.3419626 0.21440768 -0.097819455 0.25486743 0.019054536 0.09656372 -0.13252956 -0.101632096 -0.217467 0.022843635 -0.11542163 0.00597088 -0.058549482 0.045808785 -0.17293258 -0.012129997 -0.06644334 -0.022236347 -0.040680528 -0.0857694 -0.06020205 0.12610188 0.1781178 -0.096806645 0.3404748 0.2966368 -0.08572783 -0.07216603 -0.053661566 -0.05354256 -0.10375787 0.10651999 -0.038179412 0.06608201 0.039131522 -0.08838498 0.13584101 -0.21513228 -0.07794573 -0.1771383 0.12707002 -0.15925442 -0.20112993 0.13232403 0.0049474537
137 0.1550494 -0.17936546 -0.056160618 -0.067941375 0.08764616 -0.29021063 0.20270014 0.06870972 0.10053658 0.058996275 -0.06584274 -0.13037133 -0.050573774 0.06822283 0.103919975 0.2495897 0.004628094 -0.08233063 0.14923704 0.07098933 0.28729632 0.14789441 -0.15118594 -0.33523637 -0.21849151 0.08883932 -0.12244453 0.18898965 0.0055060303 -0.20835309 -0.21389142 -0.07303735 -0.053161103 0.04415761 0.0014110177 0.07154318 0.11521309 -0.032861784 0.0084720515 0.09408544 -0.043105945 0.07444882 -0.043277495 -0.056236863 0.00019188234 -0.12094942 -0.13547887 -0.2202007 -0.11526331 -0.057389036 0.08044977 -0.24019744 0.15192407 -0.2090544 -0.20894794 -0.33034334 0.20790753 0.023785122 -0.21380661 0.24680747 0.078899525 0.29764178 0.01239309 -0.09641292 0.0096241515 0.09150949 -0.22110344 0.14116146 -0.08617758 -0.058278717 0.10870411 -0.046123087 -0.13078196 -0.079825945 0.27880946 -0.10408783 0.074736565 -0.07383127 -0.2989325 0.032709513 -0.046792787 -0.13231207 -0.08149664 0.37079516 0.011361217 0.36435482 0.20559223 -0.32573363 0.038662247 -0.19317496 -0.056805342 -0.123857394 0.17275563 -0.06911674 0.19038117 0.11598413 -0.00018404932 -0.29373607 -0.14785077 -0.07761597 -0.124980755 -0.065972045 0.10050034 0.021208122 0.08765427 0.10012113 -0.10473107 0.1826562 0.25364697 -0.02462056 0.0064630318 -0.034515683 -0.07046339 0.0012538928 -0.11234721 0.053295013 -0.015471915 0.2207039 -0.11530847 0.08271262 -0.23060589 -0.15154149 -0.08907287 0.023719411 -0.21981344 -0.30755937 0.065375015 0.28515783
28 0.01148627 0.18915935 -0.087225154 -0.0009133598 -0.12030622 0.013132585 0.124163315 -0.2934746 -0.103353724 0.19139813 0.16907017 0.04409199 -0.10649681 -0.19228813 0.178183 -0.148381 -0.21686791 -0.2056357 -0.17919025 -0.036973488 -0.0008320307 0.13793844 -0.15812953 -0.39105976 -0.009457247 0.29821047 -0.15528458 -0.060184035 0.0040677832 0.0002468749 -0.060400125 -0.04359286 -0.045848176 0.041602362 -0.083676256 0.26387572 0.054834634 -0.19581924 -0.021033855 0.13414834 -0.054760687 0.12711981 0.050027337 0.0049949465 0.22728708 0.07402623 -0.25301388 0.16291307 -0.08500578 -0.047040593 -0.0297776 0.062950365 -0.024674475 -0.062350594 0.023075515 -0.07893836 0.18194671 -0.20736791 -0.183224 -0.096698165 -0.11638839 0.040513847 0.4243558 -0.08215181 0.24210942 -0.16535327 0.067871064 0.18472649 -0.24091277 -0.14666125 0.08998799 -0.14591162 -0.35015804 0.12621054 0.030066751 -0.05910516 -0.13953404 -0.052184775 -0.2464407 -0.15033574 -0.14117639 -0.14062692 0.029228669 -0.00491488 -0.048448823 0.13295478 0.14675903 -0.19161355 0.14727445 -0.082901165 0.037201554 -0.120789126 0.3418078 0.08020147 -0.05443729 -0.01774465 -0.12996885 -0.26965547 -0.17109714 -0.33532187 -0.06545223 -0.030637879 0.032138154 0.013641781 -0.09804738 -0.014083463 0.037328456 0.14447926 -0.045560677 -0.32100803 0.20113681 -0.11333141 0.08472357 0.049631767 -0.07384395 0.038266644 -0.009300727 -0.011010205 -0.032688066 -0.14146227 -0.20262265 0.00037375774 -0.13649808 0.1547725 -0.16622889 -0.21510921 0.16433689 -0.146494
145 -0.109975815 -0.099764414 -0.08353069 0.031414144 0.21248926 -0.032551333 0.35879767 -0.017239483 -0.036242425 0.15312414 0.07707102 0.1564952 -0.08235466 -0.039658286 0.24924296 0.2019732 -0.040281575 -0.20966808 -0.119340695 0.08912292 -0.042251635 0.22667643 -0.23942773 -0.21252951 -0.208338 0.195801 0.09841364 -0.02391711 0.008775628 -0.14494367 0.028591497 0.10013778 0.020299735 0.010206877 -0.14847401 0.10926097 0.107658036 -0.05501387 -0.058086514 -0.07013965 -0.16309856 0.038259458 -0.06849842 -0.052668426 0.18633744 -0.06730728 0.051511407 0.06165294 -0.13835084 -0.011135627 0.065380014 0.11827112 -0.020490777 0.09948035 -0.10164348 -0.13310951 0.20527433 -0.28513017 -0.08704687 0.029802717 -0.029051058 0.20412323 0.16530229 0.15439668 0.06320763 -0.049094163 -0.07023427 0.28921887 -0.02865376 0.031335626 0.20690894 0.00016444508 0.06623717 0.04126932 0.029184347 0.0366408 -0.17451364 -0.08442153 -0.19107957 0.06505143 -0.1202627 -0.2053939 -0.04722134 -0.03594821 0.0013861897 -0.033775732 -0.00070305285 -0.21603304 -0.006799621 0.056953453 -0.22984527 -0.09966151 -0.1774409 -0.05825693 0.13134086 0.37866378 0.02586553 0.0025013725 -0.19827244 0.114564255 -0.19042584 -0.04527244 -0.10125695 -0.03183986 -0.0984746 0.04789795 0.09952455 0.18770452 -0.07069734 0.20020044 0.029497761 -0.02470093 0.018179912 0.070979156 0.08760793 -0.015266286 0.17866765 0.05975906 0.07392143 0.077861786 -0.12399601 -0.07209224 -0.0015755197 -0.088662274 -0.2254427 -0.40853974 0.1523732 0.009939218
69 0.05821957 -0.08999418 -0.07742893 0.22490826 -0.013627745 0.035825074 0.0883643 -0.018585818 -0.1569883 0.23582752 -0.051637597 0.06389849 0.026030902 -0.28539264 0.28061262 0.28733277 -0.2991243 0.007845192 -0.13304439 0.07910797 0.118598275 0.2904896 -0.18666914 -0.18902911 -0.293034 0.38706562 -0.01346553 -0.016741052 0.013248847 -0.09981454 0.09509764 -0.016616266 -0.053659152 -0.03134881 -0.1462779 0.25088415 0.109310836 -0.018551702 -0.006889431 0.052121658 -0.20387149 0.010397526 -0.10282598 -0.045942996 0.25342157 0.09139876 0.14629331 -0.07571219 -0.19127922 -0.04404814 0.009756492 0.07526886 -0.12464825 0.114183776 -0.04031246 0.00856193 0.18326403 -0.23305644 -0.22933726 -0.08257105 0.05614118 -0.0037734183 0.031081138 0.15023004 -0.026428781 -0.22628047 0.22526726 0.0054341345 -0.07756845 -0.10878529 0.03442835 -0.09191415 -0.13655554 0.10547553 0.09319701 0.31344503 -0.22019456 -0.037531473 0.09181822 -0.06861636 0.05011457 -0.0039090035 -0.007685055 0.19686761 -0.117730804 0.04432639 -0.013526227 -0.1601929 0.2028733 -0.004050964 -0.24296233 0.048311077 -0.009221573 0.015013235 0.28227425 0.18273798 -0.1292472 -0.10071104 -0.06301295 -0.07187718 -0.06399157 0.037101258 -0.10012129 -0.027746966 0.02215948 -0.06463004 0.24616188 0.18830858 0.23945323 -0.10674642 0.028776769 -0.12902965 -0.04216022 -0.0768426 -0.044969402 0.13862777 -0.06593571 -0.051191326 0.0693321 0.106732704 -0.072974555 0.031940434 -0.0268546 -0.15521769 -0.23953222 -0.10318116 0.045531403 -0.013807906
105 0.13257743 -0.03672076 -0.00907715 0.16980277 0.1041968 0.001346488 0.06648576 -0.047327988 -0.15551077 0.18857248 -0.09098422 0.1302166 0.013906851 -0.31350508 0.35403645 0.2993715 -0.22223182 -0.0013884284 -0.18302949 0.15669793 0.13290079 0.37900782 -0.23385695 -0.21294835 -0.43338007 0.41078117 0.09684061 -0.05235581 -0.048112255 -0.08498824 0.15324235 0.072219506 -0.039308112 -0.04470101 -0.26329032 0.42037028 0.05427531 -0.03276355 0.008014675 0.014682087 -0.20957586 0.004475649 -0.029663771 -0.062387466 0.31576672 0.11270656 0.074983485 -0.1267947 -0.11361458 -0.046392336 0.017649362 0.17256889 -0.1866106 0.16149387 -0.114738025 0.013013254 0.24430697 -0.16177118 -0.19298014 -0.086661205 0.09280919 -0.0044515757 0.015324888 0.19049405 -0.11679315 -0.2125083 0.26255223 0.06495124 -0.05405093 -0.110347666 -0.012168347 -0.07484952 -0.010276802 0.15770483 0.069593124 0.40141174 -0.22450201 0.05183139 0.109600164 0.07372909 0.06623468 -0.038351487 -0.04652671 0.16807872 -0.12461889 0.1254838 -0.03525428 -0.10199763 0.18997143 -0.01891056 -0.2627749 -0.10339903 -0.050541416 0.00047916907 0.31027153 0.22990054 -0.1757729 -0.035467826 -0.1201506 -0.08371993 -0.16716458 0.06527194 -0.1785287 -0.010851172 0.063833736 -0.13946022 0.27250537 0.20433839 0.19835405 0.011870071 0.03484471 -0.05734249 0.00050203863 -0.0841032 -0.14354299 0.095988 -0.026036074 -0.15866058 0.1632622 0.15437855 -0.008980392 0.031257387 0.1103641 -0.32913846 -0.2783807 -0.111425854 0.103880756 -0.03027569
228 0.029233275 0.10820613 0.06448627 0.016307794 -0.08245405 0.015653491 0.20357361 -0.035008572 -0.07103396 0.22718376 -0.10673221 0.037410196 -0.2372982 -0.103835836 0.17377576 0.03960971 -0.124017954 -0.13818066 -0.29370376 0.11291719 -0.09402518 0.042009395 -0.06729644 -0.2632709 -0.23542115 0.17452194 -0.27624238 -0.0048246537 0.013384261 -0.0013091841 0.039759263 0.14519681 -0.1676942 -0.05101982 -0.14221798 0.17581959 0.037450798 0.02203967 -0.12119779 0.046167716 -0.32064435 0.20825304 -0.14750718 -0.07221937 0.056962848 -0.074293755 -0.2235659 0.07158648 -0.09092204 0.10963485 0.2876271 0.17475109 -0.19579145 0.17519051 -0.22847572 0.02551152 0.1698707 -0.26565173 -0.2353987 -0.027574442 -0.04320812 -0.022170462 0.38405538 -0.1762628 0.20388068 -0.091664575 0.10818915 0.088360414 -0.223388 -0.3813899 -0.09912645 -0.19707738 -0.1746028 0.17636813 0.0042066383 0.097752824 -0.16575126 -0.09863408 -0.26515663 -0.0025425716 0.0025730613 -0.08908616 0.19470613 0.08765388 -0.20217432 0.35414648 0.25335434 -0.2772384 0.17109492 -0.1137384 -0.037458666 -0.0989239 0.28178456 0.060593713 -0.0025061844 0.051591028 -0.017829308 -0.38839063 -0.031249508 -0.10124127 -0.24113834 -0.12807903 -0.026246198 0.1794552 -0.02200446 0.2766028 0.10890974 -0.16557083 -0.09252105 -0.15069829 0.22576661 -0.032106377 -0.07703579 0.12396023 -0.1998301 0.10991759 -0.012360213 -0.16818252 -0.044779293 -0.020638961 -0.15420434 -0.092692874 -0.026382904 0.28266612 -0.18275584 -0.13266043 0.042023912 -0.11650753
249 0.17396426 -0.010668654 0.0038516766 0.15278383 0.11426604 -0.026862236 0.10041338 -0.019424448 -0.14481579 0.18748541 -0.090778485 0.06597222 0.0022310144 -0.3059188 0.33503434 0.32805964 -0.1697564 0.02104237 -0.15675712 0.14939064 0.21724008 0.35703585 -0.16953535 -0.16838989 -0.46193388 0.31310177 0.06863876 -0.035374872 -0.013480885 -0.052985225 0.12963039 0.032920137 -0.022680076 -0.039541997 -0.2482301 0.36997372 0.08958341 -0.047286954 0.05288531 -0.0008023148 -0.2043769 0.009170336 -0.039052784 -0.102438495 0.28282845 0.12176784 0.058399595 -0.1702183 -0.088198304 -0.03318472 0.038860254 0.18075253 -0.17918663 0.14839645 -0.16675271 -0.018556453 0.22626176 -0.120203935 -0.20718344 -0.12987337 0.052494556 -0.024508366 -0.06024275 0.14803655 -0.06279506 -0.18939893 0.2697567 0.0041472064 -0.0303932 -0.10220039 -0.06954358 -0.05235137 -0.0059772003 0.15899396 0.06669595 0.3821155 -0.22702578 0.05028598 0.11587497 0.06921464 0.08629364 -0.024448713 -0.056480024 0.25916934 -0.09249714 0.1468568 0.029434817 -0.07614173 0.21634461 -0.04066473 -0.24579215 -0.1439026 -0.0044252076 -0.037680883 0.28114706 0.16323666 -0.15776692 -0.044108525 -0.073072165 -0.09522496 -0.17911866 0.06290803 -0.18661393 -0.015718916 0.10293012 -0.08388946 0.21183702 0.1864531 0.24035026 -0.02286534 0.019793998 -0.062778994 -0.056399826 -0.08736837 -0.12919065 0.14189053 -0.025293142 -0.16451368 0.1444736 0.16749194 -0.024510905 0.03636888 0.13154104 -0.30507934 -0.23472483 -0.080141164 0.06368651 -0.00045497983
24 -0.1544545 0.041529674 0.02189815 0.09852764 -0.0977668 -0.081543826 0.25014603 -0.17023952 0.015656222 0.30133364 -0.010369071 -0.07514256 -0.056822464 -0.02714459 0.16037016 0.17712045 -0.09193112 -0.2131156 -0.24742512 0.019151872 -0.022415163 0.08567541 -0.027795834 -0.115744635 -0.16775747 0.0745362 -0.21494885 0.03344058 -0.024969682 0.01220763 0.023238877 -0.012401369 0.0474017 -0.09945025 -0.0966291 -0.031076415 0.090888314 -0.06294869 -0.05018044 0.11322628 -0.28326946 0.1206736 -0.21497278 -0.12969922 0.15375671 0.117778145 -0.17313075 0.11184651 -0.13020214 0.03426295 0.12582201 0.18985476 -0.058746066 0.022151476 -0.15374056 -0.049128905 0.007896062 -0.24203758 -0.2747609 -0.11836741 -0.22048998 -0.01507025 0.32060167 -0.05553152 0.3271531 -0.10853743 0.077003725 -0.029605776 -0.16892198 -0.063509926 0.042955954 -0.1356612 -0.33521155 0.105945125 0.022787178 -0.07043105 -0.2594307 -0.063371 -0.2532213 -0.008509162 -0.09942513 -0.08398085 0.0516313 0.18782197 -0.0701473 0.13090499 0.103028595 -0.23781526 0.17366499 -0.030230783 -0.0114835845 0.0773709 0.28329393 -0.006267282 0.01629176 0.0081997 -0.07520091 -0.26715007 -0.022521287 -0.16827352 -0.09750734 -0.07467511 -0.021213152 0.0645398 -0.16008978 0.22251433 0.091061324 -0.1359261 0.011526687 -0.24200958 0.2177872 -0.22739474 -0.19298825 0.05677208 -0.15469335 0.17288361 -0.05387348 -0.056448184 -0.10857267 -0.02096813 -0.06425828 -0.049019914 -0.063320145 0.2016013 -0.1441752 -0.21548347 0.0033235766 -0.09527609
227 -0.020331325 0.121097974 0.027415944 -0.008967317 0.20615678 -0.19060022 0.23508188 -0.21772522 0.02152662 0.05513171 0.20437285 -0.042270806 -0.015519283 -0.12255602 0.25202224 0.21156137 0.05429079 -0.19934641 -0.118530706 0.046887696 0.3020314 0.33186203 -0.11190905 0.019597277 -0.24774577 0.018467512 0.097980976 -0.1187685 -0.0769568 0.076980546 0.078105226 -0.05911429 0.23468634 -0.07924108 -0.20234576 0.1952354 0.10597717 -0.21153194 0.14744371 -0.12018412 -0.16677164 0.02864925 0.06571071 -0.14907153 0.26083484 0.11536319 -0.20081428 -0.034789458 0.1628978 -0.00987893 -0.00012396138 0.31107453 0.051806893 0.04502546 -0.15820956 -0.17184126 0.094030336 0.040529665 -0.19135898 -0.19901949 -0.25971207 0.08224795 -0.012883466 0.08754487 0.197496 -0.018580584 0.09953618 0.025836213 -0.018086897 0.19170718 0.07806874 0.038521778 -0.13308544 0.11722909 0.009267253 -0.04273247 -0.20857139 0.14831147 -0.096994475 0.14911318 -0.16987854 -0.16075851 -0.16239433 0.3355813 0.18153471 0.009028598 0.13449234 0.12870297 0.15393837 0.01876567 0.05183463 -0.3773105 0.16921468 -0.1736365 0.10466627 0.06012305 -0.024571415 0.0681123 -0.20476082 -0.22353452 -0.19096735 0.034211487 -0.14319928 -0.10002786 0.09909446 0.001298518 -0.13018908 0.17306203 0.049142227 -0.12060075 0.15965717 -0.11259329 -0.14844172 -0.076906905 -0.09334078 0.0067165243 0.054558758 -0.124355234 -0.0032232525 0.08009689 0.04363101 -0.0430576 0.16197994 -0.27188382 -0.24928789 -0.44167525 0.19596548 0.06739457
14 0.19240461 -0.15225573 -0.041821644 -0.049677785 0.12489231 -0.2155896 0.19456004 -0.019471964 0.06778846 0.24004158 -0.042461816 -0.13231485 0.0029333783 -0.05692768 0.095807165 0.21368954 0.19614574 0.053648278 0.15765773 -0.05439644 0.23155965 0.15547656 -0.13719101 -0.29962263 -0.30479735 0.036775794 -0.07844482 0.23246351 -0.06342322 -0.17412658 -0.111220725 -0.044031657 0.009189195 0.05732113 0.010916283 0.07318626 0.20502427 -0.16560115 -0.03872088 0.09185591 -0.062180355 0.06202667 -0.03673062 -0.23600405 0.21302992 -0.05842865 -0.13132355 -0.1795681 -0.23296456 -0.14451821 0.03592244 -0.09480889 0.107659094 -0.40156072 -0.20548747 -0.27005878 0.121911004 0.08554926 -0.17914489 0.08989699 0.07724368 0.34800026 0.18977027 0.028840575 0.08587036 0.09811147 -0.20255493 0.17176673 0.027752766 -0.0519766 0.071120776 -0.12012278 -0.104592115 -0.090916894 0.16692768 -0.21141088 0.017093139 0.009764704 -0.20556886 0.10612905 -0.057202056 -0.1811012 0.011841689 0.26709846 0.11074085 0.32105985 0.07930197 -0.27394754 0.100115314 -0.23300378 -0.15639216 -0.11993572 0.086040005 -0.025636356 -0.05347894 0.021124821 -0.07740822 -0.2540098 -0.18179262 -0.07289091 -0.040724207 0.01834568 0.01850137 0.028017921 0.019389559 0.115612134 -0.010445072 0.2150406 0.2490766 0.0601454 0.0485824 -0.0249515 -0.06052265 -0.025986077 -0.05788579 -0.033713832 0.06905356 0.19003916 -0.0014509013 0.10168528 -0.29484823 -0.2060193 -0.15558258 0.0002682517 -0.17837685 -0.26726362 0.10318624 0.15718931
138 0.05964255 0.03432721 0.035855122 0.11164331 0.18698218 -0.12685506 0.17651874 -0.11622988 -0.071618125 0.100227155 0.018082729 0.018612312 0.03091832 -0.22399902 0.33453116 0.3451893 -0.0598785 -0.062514484 -0.15178697 0.107755214 0.30722907 0.41668764 -0.19720565 -0.02796074 -0.42175144 0.1761226 0.11608418 -0.05233097 -0.05328298 0.0022927162 0.1590799 -0.01357058 0.14679357 -0.07895448 -0.2422123 0.3002896 0.07649242 -0.1356191 0.11014554 -0.08694157 -0.23210727 -0.028325262 0.013064494 -0.17077745 0.33186713 0.16756472 -0.032615107 -0.12862444 0.04868814 -0.0747436 -0.026102023 0.28295225 -0.076154806 0.10342375 -0.18658014 -0.07702241 0.14260992 0.021017205 -0.22835028 -0.21833915 -0.08226775 -0.0027944064 -0.04894343 0.17989793 0.043066666 -0.14657146 0.2159763 0.012906975 -0.0152698485 0.109209366 -0.020053633 0.000760935 -0.07652986 0.17657596 0.021199496 0.21435042 -0.2532908 0.13885222 0.069848515 0.1472557 -0.029454567 -0.1116964 -0.16375303 0.3488999 0.06977071 0.072472 0.014307267 0.035031322 0.19765963 0.014892406 -0.11398317 -0.25849342 0.05396787 -0.13069856 0.20842718 0.15757543 -0.11916799 0.071973436 -0.17130406 -0.15557036 -0.16769008 0.08361904 -0.18284427 -0.09353553 0.07903997 -0.08787638 0.079122014 0.19622286 0.21888667 -0.07510241 0.11611665 -0.13184674 -0.1518529 -0.14174968 -0.10176304 0.10963974 0.0072005014 -0.16479897 0.12303645 0.15408967 0.05170945 0.045046337 0.20736139 -0.40920618 -0.24407224 -0.26406515 0.111793995 0.023683108
209 0.113805346 -0.19793129 -0.084696285 -0.009239757 0.12553646 -0.17368281 0.21417613 -0.02619257 0.03322692 0.33399713 -0.071850926 -0.077207126 0.020467112 -0.064018875 0.11049484 0.25317922 0.20931002 0.05256633 0.10856688 -0.10693095 0.164114 0.16802008 -0.14720361 -0.23476087 -0.26269892 0.0076545677 -0.06927055 0.22616081 -0.07780163 -0.16082725 -0.08609894 -7.95449e-05 0.06912048 0.007893918 -0.019073876 0.054590963 0.19361022 -0.17345569 -0.038545523 0.10095213 -0.10320497 0.004544864 -0.048488446 -0.28109342 0.21069968 0.048060004 0.0033751365 -0.09328211 -0.29897004 -0.17063054 0.008693644 -0.0064066094 0.13648188 -0.44471097 -0.17903511 -0.22833759 0.08380671 0.035011634 -0.10838025 0.015059953 0.024526462 0.3349566 0.198908 0.116552025 0.13062201 0.061313674 -0.17533025 0.20619173 0.045031313 0.032946516 0.08363689 -0.15130734 -0.0960785 -0.09387125 0.112237506 -0.2184417 -0.09133727 -0.013670248 -0.17614622 0.113553084 -0.066256754 -0.20221259 0.010211595 0.24231571 0.11806888 0.20429516 0.006615222 -0.25281662 0.090695046 -0.2259048 -0.18636529 -0.0526769 0.03584115 -0.012617528 -0.080811426 0.036000017 -0.10023552 -0.18470825 -0.15111215 -0.07198773 -0.023585077 0.097031996 -0.042432677 -0.023801759 -0.051282648 0.11803093 0.042382732 0.2244211 0.22230408 0.047462877 0.07814576 -0.08207101 -0.09950967 -0.031850066 0.014517758 -0.02215634 0.07287531 0.1861382 0.047028363 0.10956372 -0.21057658 -0.17163028 -0.16401552 -0.023418682 -0.16590126 -0.27298978 0.06497757 0.09954025
152 -0.07618956 -0.14398402 -0.090607986 0.055211958 0.20539914 -0.066366084 0.41142866 -0.01999598 -0.085044146 0.2082751 0.031818196 0.10457078 -0.12942407 -0.14641993 0.22999783 0.1727928 -0.013994184 -0.22367682 -0.12638935 0.07541341 0.031390183 0.20653628 -0.25838494 -0.21845385 -0.18439437 0.16706003 0.007096109 -0.04725032 0.09869507 -0.13724494 -0.01458207 0.13592046 -0.0031672001 0.01745391 -0.12456811 0.13247655 0.13931881 -0.082198955 -0.03861176 -0.057189718 -0.18293492 0.058829572 -0.071733944 -0.073432446 0.052287605 -0.10101733 0.111325175 0.047497418 -0.15191363 -0.0037645742 0.1558755 0.16159382 -0.031412378 0.11937145 -0.11748762 -0.09749138 0.1619818 -0.32695046 -0.07178984 -0.039202992 -0.040104598 0.18764488 0.13383928 0.037202705 0.05649854 -0.034984406 -0.016871706 0.23006594 0.023728268 -0.049588613 0.08681303 -0.00072685495 0.0806458 -0.026749441 0.015258298 0.046337444 -0.23759834 -0.119465776 -0.18837932 -0.010406794 -0.11848063 -0.1617273 0.05007101 0.04014798 -0.0036782357 -0.046009384 0.114486635 -0.15371981 0.044477586 0.03737592 -0.21594487 -0.13718908 -0.18403421 -0.033999898 0.13938579 0.30102623 0.024254339 -0.021610342 -0.08648152 0.11528963 -0.14855264 -0.08223182 -0.15415938 -0.01944684 -0.051298827 0.077351704 0.11234783 0.17085415 -0.0487835 0.16342095 -0.0029273848 0.0029992305 0.026320504 0.092935696 0.116841495 -0.016311573 0.18658255 -0.050610814 0.0037927267 0.092725076 -0.11911624 -0.10200336 -0.0009967954 0.0036943762 -0.15409283 -0.29673278 0.12780483 -0.064562894
55 0.21198699 -0.16907604 -0.051076572 -0.021115953 0.15230584 -0.1981681 0.19335799 -0.07093407 0.00028632797 0.31093368 -0.059974633 -0.112128094 -0.004116467 -0.12772354 0.12860039 0.19257587 0.25057143 0.071315914 0.066267535 -0.05482546 0.209323 0.18859169 -0.11243518 -0.22954208 -0.33634844 0.010752766 -0.081277266 0.19600224 -0.088282906 -0.064576864 -0.062497217 0.03912234 0.060732596 0.009653445 -0.024114572 0.10050177 0.20300396 -0.1964273 -0.028466895 0.10020339 -0.11502316 0.08094803 0.0057490584 -0.26294896 0.24896018 -0.0141949495 -0.1071619 -0.15421873 -0.17287442 -0.12673508 0.050384272 0.040926844 0.021199754 -0.38132238 -0.20171565 -0.23846672 0.060107213 0.105401374 -0.14089668 0.01626786 0.037782114 0.28742483 0.1921272 0.05726883 0.09472808 0.09088904 -0.12028662 0.09506124 0.086765714 -0.1019491 -0.008778219 -0.17047332 -0.02876999 -0.08557333 0.11815781 -0.17068668 -0.06899807 0.07904582 -0.12612887 0.1469417 -0.0671954 -0.17917524 0.06756111 0.22639513 0.11173565 0.2813436 0.07377834 -0.16119808 0.13083154 -0.2350686 -0.1250032 -0.14134502 0.07607482 0.0013404015 -0.10306991 -0.04546247 -0.1002416 -0.22556448 -0.11580411 -0.087192774 -0.06238916 0.04945915 -0.054736957 0.029263923 0.005636854 0.15513097 -0.02353776 0.19972003 0.22922991 0.059227895 0.061095808 -0.008071538 -0.054623347 -0.005313659 -0.08202371 -0.04220273 0.086612485 0.08257805 0.047647845 0.13444267 -0.20140736 -0.16146661 -0.12648605 -0.0104011055 -0.16685103 -0.18392414 0.13120791 0.04803835
174 -0.044825014 0.1275207 0.079957 0.0012167402 0.24186441 -0.17970946 0.24486302 -0.18728422 0.01235594 0.02965998 0.12281688 -0.031075673 -0.018328728 -0.10425771 0.2886407 0.258264 0.068936415 -0.19736509 -0.16529359 0.0732776 0.29312122 0.36025387 -0.15127547 0.036249973 -0.33043852 0.022831656 0.09507561 -0.09135357 -0.06317412 0.05290885 0.10034483 0.013616627 0.20607215 -0.105112016 -0.2373409 0.22601153 0.073626734 -0.14643113 0.1300308 -0.118891604 -0.18930659 0.011563711 0.062911764 -0.14565988 0.23503582 0.11457054 -0.14584966 -0.062011786 0.17337722 -0.04086829 0.009639922 0.34549507 -0.0035844997 0.08209208 -0.18861392 -0.14407517 0.10065649 0.037958387 -0.19313587 -0.1832791 -0.22368896 0.043056175 -0.021458318 0.08532722 0.16945903 -0.061868764 0.15035231 0.041295636 -0.033467636 0.16583078 0.03415192 0.03076101 -0.09933645 0.14176549 -0.0036483502 0.031841476 -0.24964696 0.15958184 -0.097948045 0.20557527 -0.1492982 -0.1690459 -0.16658357 0.31596732 0.12256969 0.060292862 0.10216443 0.10057966 0.15685217 0.021533923 0.0050988225 -0.35527363 0.14533791 -0.1631625 0.13228193 0.12387405 -0.040972516 0.07331343 -0.20211408 -0.18854183 -0.23380482 0.027727699 -0.16241418 -0.07422712 0.06477153 0.017516771 -0.04303497 0.11660296 0.047696583 -0.08368673 0.17474197 -0.11408675 -0.17645697 -0.060888696 -0.1244394 0.05120185 0.06506746 -0.15473008 0.0494076 0.107435994 0.07355175 -0.012564249 0.20725645 -0.30088836 -0.23790155 -0.40642026 0.17414401 0.040721364
143 -0.01775797 0.08620496 0.051306546 -0.027997807 0.2575168 -0.17152902 0.29879072 -0.13340677 -0.0055243615 -0.0054212203 0.1435643 0.00056124467 -0.053954974 -0.112792805 0.2782008 0.27248135 0.017357845 -0.24750121 -0.12362107 0.101104416 0.3124706 0.38043824 -0.16182394 0.014005903 -0.32857877 0.036439497 0.099226885 -0.12599689 -0.012975648 0.0103947455 0.09946095 0.0016544807 0.2189235 -0.07558277 -0.26302865 0.24408922 0.08676553 -0.121304065 0.11646075 -0.14209121 -0.19089781 0.00038825447 0.029812828 -0.13103187 0.19088888 0.05260092 -0.12654528 -0.050843097 0.18795396 0.0041189734 0.027507061 0.31546456 0.014339216 0.1570796 -0.17282149 -0.15925181 0.14386863 0.010047958 -0.18674418 -0.17023653 -0.22710194 0.07137157 -0.0755003 0.09752871 0.1212113 -0.054925498 0.12517992 0.081700705 -0.023323592 0.1855857 0.072393894 0.10124162 -0.023838334 0.12509292 0.013765623 0.07174184 -0.24740733 0.1313488 -0.09474996 0.19112112 -0.14799374 -0.18129852 -0.20096569 0.3556907 0.1316179 0.03243724 0.12644522 0.1150211 0.12918633 0.06500181 -0.05632208 -0.40145683 0.08832817 -0.18443651 0.20922913 0.192917 0.0073389644 0.11599897 -0.21428712 -0.1360204 -0.24973089 -0.02019721 -0.1559491 -0.081124134 0.12601988 0.0053231884 -0.07309838 0.19460407 0.08693656 -0.02383319 0.12337514 -0.077209994 -0.17189568 -0.08986211 -0.07494106 0.03139186 0.09950063 -0.13163766 0.03780021 0.13145694 0.03937368 -0.057375338 0.22125742 -0.32756755 -0.28983992 -0.47264215 0.18222877 0.07756601
